
\data\
ngram 1=7611
ngram 2=21052
ngram 3=25744

\1-grams:
-99	<s>	-1.019604
-0.8529712	</s>
-1.515196	o	-0.6369114
-4.850052	objeto	-0.05876382
-4.850052	relacional	-0.05876382
-4.850052	some	-0.05620458
-2.229916	no	-0.5229023
-4.37293	interior	-0.05204453
-4.549022	imaginário	-0.05464071
-2.024626	do	-0.428273
-4.37293	corpo.	-0.1901874
-3.736109	grupo	-0.02371129
-3.35869	vem	-0.7372131
-1.62916	de	-0.3180982
-2.016905	uma	-0.6476719
-4.549022	temporada	-0.04265547
-3.488324	rio	-0.6861367
-3.469841	janeiro.	-2.934352
-2.459117	tem	-0.8378221
-4.850052	lucro	-0.04844767
-1.893883	um	-0.6611199
-4.247992	bilhão	-1.655417
-3.946962	dólares	-0.08512019
-2.396733	por	-0.5992115
-4.004954	ano.	-2.934352
-4.850052	chile	-0.05845088
-3.134049	até	-0.2860283
-2.992719	hoje	-0.5327194
-3.196839	ainda	-0.219659
-2.318573	está	-0.93521
-2.915553	nos	-0.4557909
-4.004954	treze	-0.1078244
-3.895809	cento.	-2.934352
-3.488324	segundo	-0.1971647
-2.168811	ele	-0.9870589
-4.850052	tramitam	-0.05608733
-2.210565	na	-0.5277059
-4.071901	justiça	-0.05617373
-2.992719	setenta	-0.9865945
-1.552073	e	-0.6778877
-2.343547	dois	-0.7678491
-2.283025	mil	-1.301448
-4.850052	processos	-0.05873315
-4.071901	desse	-0.05849998
-4.850052	tipo.	0.006878403
-1.616294	a	-0.409421
-4.004954	abertura	-0.20888
-4.247992	novos	-0.05870248
-4.549022	grupos	-0.05691973
-2.37293	foi	-0.5475089
-4.850052	suspensa	-0.05829739
-2.963561	pelo	-0.4480233
-3.850052	governo.	-2.934352
-4.151082	itamar	-0.05541407
-2.915553	pode	-0.5664111
-4.850052	faltar	-0.04813349
-4.549022	mercosul	-0.0507156
-2.161632	para	-0.4623376
-3.736109	ir	-0.3629147
-2.710173	à	-0.4591114
-4.247992	posse	-0.1400914
-3.0719	presidente	-0.7048863
-4.850052	colombiano.	0.006878403
-2.207587	os	-0.3626324
-4.850052	belgas	-0.05876382
-4.850052	reclamaram	-0.05809471
-2.808659	mas	-0.4582769
-4.37293	juiz	-0.05459736
-2.025926	não	-0.6685028
-3.064722	deu	-1.114878
-4.850052	pênalti.	0.006878403
-4.850052	voltamos	-0.05859817
-3.402894	porque	-0.2269704
-3.159856	essa	-0.6220557
-3.895809	relação	-0.07295004
-2.190136	com	-0.7998145
-4.549022	público	-0.04816492
-2.466236	se	-0.2452401
-4.850052	esgotou.	0.006878403
-4.247992	duração	-0.1416653
-1.939961	é	-0.7332607
-3.895809	cinqüenta	-0.521961
-4.004954	minutos	-0.1520056
-2.386159	sete	-1.156753
-3.895809	reais	-0.127843
-3.488324	cada	-0.05965857
-4.549022	ingresso.	-0.219601
-3.808659	caso	-0.1376018
-2.27256	da	-0.2597674
-4.850052	tabela	-0.04813349
-4.850052	correção	-0.05875769
-4.549022	mensal	-0.04630674
-4.549022	prevista	-0.2825668
-4.37293	constituição.	-0.1901874
-3.206599	dia	-0.2937534
-2.697763	vinte	-1.079301
-3.109689	foram	-0.3182892
-2.258987	quatro	-1.076826
-4.850052	consultas.	0.006878403
-4.549022	busco	-0.04253451
-1.825977	que	-0.5868847
-2.941567	meu	-0.7874205
-4.151082	coração	-0.03069666
-2.774505	minha	-0.9773313
-4.850052	alma	-0.04641403
-4.850052	inteligência	-0.05876382
-4.850052	querem.	0.006878403
-4.004954	lei	-0.05416983
-4.850052	antitruste	-0.05875769
-4.549022	gera	-0.05452923
-4.004954	crise	-0.04039614
-3.258987	governo	-0.1338563
-4.850052	sucursal	-0.04844767
-4.549022	brasília.	-0.219601
-3.67396	anteontem	-0.6044868
-4.850052	astronautas	-0.05876382
-4.850052	realizaram	-0.05875155
-4.37293	experiências	-0.04843511
-4.850052	científicas	-0.04813349
-4.850052	bordo	-0.0546469
-4.549022	ônibus	-0.0546469
-4.549022	espacial	-0.05875769
-4.850052	columbia.	0.006878403
-4.549022	resposta	-0.05846316
-3.187294	nunca	-0.7172933
-4.549022	falo	-0.04422497
-3.435078	meus	-0.755866
-4.850052	romances	-0.04641403
-3.645932	menos	-0.1217256
-4.850052	deste.	0.006878403
-4.850052	mariz	-0.05667942
-3.177954	segunda	-0.8198794
-4.004954	metade	-0.1862724
-2.57821	seu	-0.6382556
-3.196839	primeiro	-0.3254393
-4.850052	mandato	-0.04844767
-4.850052	senador.	0.006878403
-4.247992	resultados	-0.05639581
-2.525769	são	-0.5631623
-4.850052	esperados	-0.05576628
-4.151082	manhã	-0.7022462
-3.331538	hoje.	-2.934352
-2.210565	em	-0.4064981
-4.37293	quadro	-0.04581409
-4.850052	canto	-0.05876382
-4.850052	esquerdo	-0.05644515
-4.850052	tela	-0.05876382
-4.850052	aparecem	-0.05876382
-4.850052	cenas	-0.05876382
-4.850052	locais.	0.006878403
-4.247992	talvez	-0.1311201
-4.247992	causa	-0.0436855
-2.925773	das	-0.2085985
-3.946962	mudanças	-0.04261729
-2.10264	eu	-1.310317
-4.549022	carreira.	-0.219601
-4.850052	pretendo	-0.05872702
-4.004954	usar	-0.02337202
-4.549022	barco	-0.05875769
-4.850052	pesqueiro	-0.05871475
-3.895809	brasileiro	-0.04693753
-4.850052	instalação	-0.05608733
-4.850052	bienal.	0.006878403
-4.850052	esclarecimento	-0.05792266
-3.895809	população	-0.08644863
-3.142482	brasil	-0.3936498
-4.549022	camarões	-0.04607943
-3.125776	só	-0.03132649
-4.850052	comento	-0.05863499
-3.507629	amanhã.	-2.934352
-4.850052	prefira	-0.05823598
-2.910533	sempre	-0.7765633
-4.850052	especialista	-0.05876382
-4.850052	plástico	-0.04813349
-3.946962	outra	-0.05867182
-4.850052	modalidade	-0.04844767
-4.850052	cirurgião.	0.006878403
-4.37293	secretário	-0.04597837
-4.549022	planejamento	-0.05464071
-4.549022	município	-0.04842883
-3.35869	paulo.	-2.934352
-4.850052	pensasse	-0.05870248
-3.808659	assim	-0.09463407
-4.850052	escreveria	-0.05842633
-3.101864	sobre	-0.8020939
-4.850052	índia.	0.006878403
-3.703924	lugar	-0.5722849
-4.850052	nomeado	-0.0453019
-4.850052	coronel	-0.05875769
-4.549022	alberto	-0.05875769
-4.850052	tarjas	-0.05876382
-4.850052	neto.	0.006878403
-4.850052	representava	-0.05457259
-4.549022	receita	-0.05875155
-4.850052	anual	-0.04844767
-3.050711	trezentos	-1.815967
-2.886264	cinquenta	-1.143738
-2.736108	milhões	-1.122595
-3.808659	dólares.	-2.934352
-4.850052	burocracia	-0.05876382
-4.850052	ineficiente	-0.0522376
-4.850052	comanda	-0.0453019
-3.488324	futebol	-0.9356044
-4.37293	levou	-0.1824126
-3.619603	quase	-0.1104232
-3.402894	cem	-0.8018829
-4.37293	jogos.	-0.1901874
-4.549022	inicialmente	-0.04505507
-4.549022	revisão	-0.05462832
-4.37293	deveria	-0.05802098
-4.37293	terminar	-0.05551915
-3.177954	quinze	-0.7382155
-3.946962	março.	-2.934352
-4.850052	trama	-0.05375429
-3.895809	ponto	-0.175131
-2.592373	mais	-0.2867745
-4.247992	alto	-0.04154643
-4.549022	livro.	-0.219601
-3.946962	dá	-0.1029644
-4.549022	vontade	-0.2749271
-4.850052	meter	-0.0453019
-4.549022	microfone	-0.05605647
-3.011203	sua	-0.192539
-3.435078	cabeça.	-2.934352
-4.850052	corregedoria	-0.05876382
-4.850052	investiga	-0.05728302
-4.549022	silva	-0.05688277
-4.850052	omisso	-0.05620458
-4.850052	caixinha.	0.006878403
-3.571298	opinião	-1.01096
-4.37293	prova	-0.03754569
-4.37293	inglês	-0.05359913
-3.488324	deve	-0.3327581
-4.850052	trazer	-0.05765831
-4.37293	problemas.	-0.1901874
-3.895809	grandes	-0.05848772
-3.808659	bancos	-0.03466345
-3.452112	estão	-0.139684
-4.37293	procurando	-0.05874542
-4.850052	apoiar	-0.05741841
-2.507629	as	-0.2631364
-4.151082	pequenas	-0.05870861
-4.549022	instituições.	-0.219601
-4.850052	página	-0.05875769
-4.549022	inteira	-0.05856749
-3.344902	será	-0.0684382
-4.850052	dedicada	-0.04813349
-4.151082	notas	-0.04449128
-4.850052	curiosidades.	0.006878403
-3.064722	sem	-0.4328976
-4.850052	cirurgia	-0.05876382
-4.850052	humorista	-0.05874542
-4.247992	poderia	-0.05748608
-4.850052	morrer	-0.05608733
-2.347625	seis	-1.051502
-4.071901	meses.	-2.934352
-4.850052	fecho	-0.0453019
-4.151082	dele	-0.04215866
-4.850052	abre	-0.04844767
-3.808659	novo	-0.05762757
-4.850052	poxa.	0.006878403
-3.037138	já	-0.2148152
-3.305984	tinha	-0.5253202
-4.850052	falado	-0.05876382
-4.850052	pro	-0.05875769
-4.549022	ciro	-0.05189499
-4.850052	reclamar.	0.006878403
-4.850052	barros	-0.05375429
-4.549022	sexto	-0.05600709
-4.549022	classificação	-0.05874542
-4.549022	geral	-0.04525128
-4.247992	pontos	-0.05462832
-4.850052	ganhos.	0.006878403
-4.549022	mandou	-0.04529557
-4.850052	chamá	-0.05875769
-4.549022	lo	-0.05594536
-4.37293	imprensa	-0.04804548
-4.37293	internacional.	-0.1901874
-4.37293	trânsito	-0.04364739
-4.549022	avenida	-0.05643898
-4.151082	praia	-0.1505495
-2.390659	muito	-0.8573346
-4.850052	intenso.	0.006878403
-4.004954	trata	-0.0863322
-4.850052	nono	-0.05876382
-4.850052	subtipo	-0.0546469
-4.850052	vírus	-0.05837107
-4.850052	identificado	-0.05620458
-4.247992	mundo.	-1.600091
-2.905569	como	-0.2308757
-2.881569	vocês	-1.303409
-4.850052	puderam	-0.05871475
-3.895809	ver	-0.08267817
-4.247992	copa	-0.05373567
-4.549022	faltam	-0.05875155
-4.549022	atacantes	-0.05608116
-4.549022	itália.	-0.219601
-2.688684	ela	-0.8415085
-3.109689	também	-0.06340905
-4.151082	afirma	-0.1290397
-2.872328	faz	-0.8530238
-4.004954	programas	-0.0376423
-4.850052	camisinha.	0.006878403
-4.151082	redução	-0.04496643
-4.247992	entra	-0.1540857
-4.549022	necessidade	-0.04785053
-4.850052	gerir	-0.04813349
-4.549022	consolidação	-0.05229986
-4.151082	real.	-2.934352
-4.850052	conformam	-0.0522376
-2.872328	eles	-0.6431243
-4.850052	fatos	-0.05875769
-4.549022	sejam	-0.05875155
-4.549022	fatos.	-0.219601
-3.387654	têm	-0.2477743
-4.549022	seguro	-0.05707986
-2.525769	médico	-1.826004
-4.37293	futuro	-0.1886207
-4.549022	incerto.	-0.219601
-3.064722	há	-0.3658718
-4.850052	obrigatoriedade	-0.04844767
-4.850052	intervalo	-0.05576628
-4.850052	jornadas	-0.04844767
-3.402894	trabalho.	-2.934352
-4.247992	debate	-0.04525761
-4.151082	velho	-0.04638247
-4.549022	trabalhista	-0.05808857
-4.850052	recuperou	-0.04813349
-3.549022	velha	-0.8791088
-4.850052	agressividade.	0.006878403
-4.37293	almeida	-0.05369844
-4.549022	informou	-0.278717
-3.67396	empresa	-0.06219512
-4.850052	demitiu	-0.05831581
-2.98082	quarenta	-1.107886
-3.469841	funcionários	-0.6453431
-4.004954	últimos	-0.1092106
-3.571298	dias.	-2.934352
-4.247992	considerado	-0.03795129
-3.507629	seus	-0.07462046
-4.850052	companheiros	-0.04844767
-4.549022	tropa	-0.0582237
-4.247992	oficial	-0.1428594
-4.850052	moderado.	0.006878403
-3.402894	lá	-0.4669123
-4.850052	dirigem	-0.05606881
-4.850052	refugiados	-0.05608733
-3.895809	maioria	-0.4087336
-4.850052	africanos.	0.006878403
-3.67396	ana	-1.227735
-4.004954	dezenove	-0.1268851
-2.867781	anos	-0.6411583
-4.37293	grávida	-0.02890005
-4.37293	ganharam	-0.05181397
-4.151082	primeiras	-0.05870248
-4.37293	páginas	-0.1929969
-2.624743	dos	-0.218295
-4.071901	jornais	-0.1400485
-3.736109	final	-0.2983043
-3.35869	semana	-0.6470002
-3.469841	passada.	-2.934352
-4.850052	observávamos	-0.05876382
-4.850052	perplexos	-0.0453019
-4.850052	vento	-0.05873315
-4.071901	levar	-0.09545685
-4.850052	telhas	-0.0546469
-4.850052	galpão.	0.006878403
-4.850052	apuração	-0.05863499
-3.507629	passou	-0.7904553
-2.77817	ser	-0.2086083
-4.004954	feita	-0.106757
-3.435078	antes	-0.6015608
-4.850052	sorteio.	0.006878403
-4.247992	santo	-0.15738
-4.549022	andré	-0.04811463
-4.151082	luta	-0.1587604
-4.37293	fugir	-0.04315808
-4.850052	rebaixamento.	0.006878403
-4.37293	documento	-0.04685557
-3.770871	qualquer	-0.05829127
-4.850052	menção	-0.05859817
-3.402894	aos	-0.08323144
-4.151082	custos	-0.04074155
-4.850052	assentamentos.	0.006878403
-3.946962	vez	-0.06957169
-4.850052	chuvas	-0.04844767
-4.850052	verão	-0.05876382
-4.850052	atrapalharam	-0.04813349
-3.469841	vida	-0.4670955
-4.850052	paulistanos.	0.006878403
-4.004954	teria	-0.09719535
-3.850052	sido	-0.04244537
-4.549022	comunicado	-0.05221269
-4.071901	irá	-0.119176
-4.247992	deixar	-0.2611299
-4.850052	cargo.	0.006878403
-4.549022	intervalos	-0.0577321
-4.850052	telejornais	-0.05747378
-4.850052	valorizados.	0.006878403
-4.850052	avanço	-0.05644515
-4.37293	tecnologia	-0.05746148
-3.387654	fez	-0.7207861
-3.094177	esta	-0.7183547
-4.549022	divisão	-0.05221269
-4.247992	perder	-0.1437655
-4.850052	sentido.	0.006878403
-4.37293	souza	-0.05780587
-4.549022	responsável	-0.05654998
-4.549022	coordenar	-0.0450614
-3.770871	programa	-0.07267547
-4.850052	tucano.	0.006878403
-4.850052	márcio	-0.05875769
-4.549022	santos	-0.05873315
-4.247992	mostrou	-0.05178904
-3.37293	estar	-0.3758474
-4.850052	recuperado	-0.05644515
-4.549022	tensão	-0.04402195
-4.850052	estréia.	0.006878403
-4.151082	oferece	-0.04881184
-3.895809	serviço	-0.1178904
-4.549022	vendas	-0.05654998
-4.247992	telefone	-0.05830967
-4.850052	abaixo.	0.006878403
-4.850052	namoro	-0.04844767
-3.344902	férias	-1.546725
-3.67396	algumas	-0.0814446
-4.850052	diferenças	-0.05773824
-3.736109	outros	-0.05568598
-3.946962	tipos	-2.989678
-4.850052	relacionamento.	0.006878403
-4.850052	fator	-0.05765831
-3.305984	importante	-0.4933415
-4.071901	próprio	-0.05862885
-4.549022	custo	-0.05462214
-4.850052	anúncio.	0.006878403
-4.850052	isto	-0.05855522
-3.305984	aqui	-0.5802951
-4.850052	colégio	-0.04844767
-4.850052	moças	-0.04641403
-4.37293	sim	-0.03577078
-4.850052	adultos.	0.006878403
-3.619603	agora	-0.06633936
-3.331538	tudo	-0.4559421
-3.258987	isso	-0.05633715
-3.619603	acabou	-0.3609638
-4.850052	fico	-0.05875155
-4.37293	tendo	-0.04438984
-4.549022	idéias	-0.05875769
-4.850052	estranhas.	0.006878403
-3.134049	posso	-1.062957
-4.850052	obrigar	-0.0453019
-4.850052	rivaldo	-0.04813349
-4.247992	jogar	-0.04437717
-4.37293	fixo	-0.05103416
-3.850052	frente.	-2.934352
-4.37293	certo	-0.05045932
-4.850052	desfile	-0.05824212
-4.850052	sobreviver	-0.05792266
-4.850052	mangueira.	0.006878403
-4.850052	cedo	-0.05576628
-4.151082	pensar	-0.1291331
-4.004954	medidas	-0.1019208
-4.850052	controle.	0.006878403
-4.850052	assis	-0.05843246
-4.850052	relativiza	-0.05606881
-4.549022	riscos	-0.2749271
-4.549022	explosão	-0.2811264
-4.549022	consumo.	-0.219601
-2.850052	nas	-0.5924963
-4.549022	estações	-0.05875769
-4.850052	espaciais	-0.05747378
-4.004954	feitas	-0.04092693
-4.37293	diversos	-0.05875155
-4.850052	tipos.	0.006878403
-4.850052	balanço	-0.05843246
-3.736109	terá	-0.1067822
-4.850052	contemplar	-0.05872702
-4.004954	referência	-0.59441
-4.850052	auditor	-0.05876382
-4.850052	independente.	0.006878403
-3.159856	muitos	-0.7323527
-4.071901	homens	-0.1010476
-4.850052	transaram	-0.0559577
-2.28895	me	-1.248213
-4.850052	procuram.	0.006878403
-3.703924	serão	-0.07621348
-2.283025	três	-0.975755
-4.247992	espetáculos	-0.04604153
-4.850052	teatro	-0.04641403
-4.850052	dança.	0.006878403
-4.850052	traria	-0.05872702
-4.004954	efeitos	-0.09928013
-4.850052	financiamentos	-0.05876382
-4.850052	habitacionais	-0.05875155
-4.37293	feitos	-0.04246446
-3.770871	recursos	-0.07644803
-4.071901	poupança.	-2.934352
-2.534081	ao	-0.47138
-4.850052	espremer	-0.0453019
-4.850052	saco	-0.04844767
-4.850052	pano	-0.04813349
-4.850052	casca	-0.05876382
-4.850052	solta	-0.05762141
-4.850052	suco.	0.006878403
-4.151082	verdade	-0.04037695
-2.84573	estou	-0.9404569
-4.850052	interessado	-0.05608733
-4.549022	deles.	-0.219601
-3.527833	grande	-0.0995632
-4.850052	virtude	-0.05644515
-4.850052	nação	-0.05873315
-4.071901	brasileira	-0.04119527
-4.850052	tolerância.	0.006878403
-2.936238	oitenta	-0.9375097
-2.98082	cento	-0.9407783
-4.071901	desses	-0.05645748
-4.850052	adolescentes	-0.05873928
-4.151082	norte	-0.04208856
-4.37293	americanos	-0.05054685
-4.247992	emprego	-0.02155816
-3.67396	meio	-0.07163761
-4.549022	período.	-0.219601
-4.850052	permanecer	-0.04813349
-4.247992	atual	-0.05867794
-3.946962	situação	-0.04106753
-4.850052	vingará.	0.006878403
-3.808659	principal	-0.05669176
-4.549022	falha	-0.04570032
-4.549022	parreira	-0.05727687
-4.850052	ocorre	-0.05620458
-4.850052	posicionamento	-0.05773824
-4.850052	meias	-0.05876382
-4.850052	ofensivos.	0.006878403
-4.004954	fato	-0.03170971
-3.159856	estamos	-0.7410649
-4.549022	terreno	-0.04422497
-4.850052	irreconciliável.	0.006878403
-4.37293	comitê	-0.05853067
-3.895809	diz	-0.4980831
-4.850052	pagará	-0.05873928
-4.151082	taxas	-0.1182404
-4.549022	estas	-0.05746148
-4.549022	empresas.	-0.219601
-4.549022	chances	-0.04175698
-4.850052	apareciam	-0.05860431
-3.418688	eram	-0.6386451
-4.850052	perdidas	-0.05866567
-3.619603	pelos	-0.07970771
-4.850052	cruzeirenses.	0.006878403
-4.247992	imposto	-0.04629411
-4.850052	previsto	-0.05576628
-4.850052	vigorar	-0.05874542
-4.247992	somente	-0.05757835
-4.549022	deste	-0.2852064
-3.946962	diferença	-0.1986019
-4.850052	solidariedade.	0.006878403
-2.881569	quer	-1.146001
-3.435078	dizer	-0.9854718
-4.549022	estrangeiros	-0.0546531
-4.37293	estarão	-0.05874542
-4.850052	seguros	-0.05608733
-4.850052	bósnia.	0.006878403
-4.850052	cabine	-0.05465929
-3.05766	parte	-0.9020279
-4.850052	edifício.	0.006878403
-4.850052	tuma	-0.04641403
-4.850052	serra	-0.05876382
-4.850052	empatam	-0.05608733
-2.824746	trinta	-1.336494
-4.850052	duplicidade	-0.05728302
-4.549022	estabelece	-0.05870248
-3.850052	então	-0.04016574
-4.247992	condição	-0.142834
-4.850052	escritor.	0.006878403
-4.850052	refletindo	-0.05620458
-4.151082	índice	-0.1162238
-3.507629	julho.	-2.934352
-3.004954	vou	-1.039272
-3.571298	pegar	-1.315178
-4.37293	umas	-0.0565808
-2.301048	cinco	-1.074774
-4.850052	macacas	-0.0546469
-3.331538	fernando	-0.7912891
-4.071901	henrique	-0.1091842
-2.952425	numa	-0.9518009
-4.850052	panela.	0.006878403
-3.895809	acordo	-0.1482157
-4.549022	voltado	-0.05575392
-3.946962	área	-0.08514589
-4.850052	bancária.	0.006878403
-3.808659	objetivo	-0.2786753
-3.619603	imagens	-0.9679474
-4.071901	mostrar	-0.1058549
-4.004954	história	-0.1421293
-4.37293	evolução	-0.05462832
-4.850052	universo.	0.006878403
-4.151082	curso	-0.1202985
-4.004954	necessário	-0.05215664
-4.549022	conhecimento	-0.05459117
-4.850052	língua.	0.006878403
-4.850052	ouviu	-0.05837107
-3.037138	setecentos	-2.987644
-3.549022	onze	-0.5537891
-3.571298	pessoas	-0.07257639
-3.946962	maiores	-0.09062396
-4.151082	dezesseis	-0.05509252
-2.925773	anos.	-2.934352
-3.645932	fui	-0.6246082
-4.549022	méxico	-0.04426302
-4.37293	fiquei	-0.05590831
-4.37293	danos	-0.05538317
-4.850052	avaliados	-0.05608733
-3.850052	cerca	-2.989678
-4.549022	entradas	-0.04631305
-3.645932	podem	-0.2553801
-4.850052	adquiridas	-0.05829739
-4.850052	acima.	0.006878403
-4.850052	maio	-0.05822984
-2.867781	este	-1.1158
-4.850052	cálculo.	0.006878403
-3.452112	hotel	-0.6477145
-4.850052	informados	-0.0522376
-3.418688	havia	-0.4266548
-3.187294	apartamento	-1.694191
-4.850052	disponível.	0.006878403
-3.850052	jogadores	-0.08770392
-4.850052	treinaram	-0.05875769
-4.549022	pênaltis	-0.05538317
-3.05766	pela	-0.2633513
-4.549022	semana.	-0.219601
-4.850052	houver	-0.05876382
-4.850052	pênalti	-0.0585184
-3.237268	durante	-0.7669998
-3.770871	jogo	-0.04454024
-4.549022	cobrador	-0.05571686
-3.946962	deverá	-0.4824362
-4.850052	bebeto.	0.006878403
-3.571298	casal	-0.8206123
-4.850052	argentinos	-0.05875769
-4.549022	reclama	-0.04827176
-4.850052	luxo	-0.05608733
-4.549022	salvador.	-0.219601
-4.850052	cobranças	-0.04844767
-4.549022	lateral	-0.05611819
-4.850052	aparecia	-0.0453019
-4.37293	pé	-0.05253016
-4.549022	jogador.	-0.219601
-4.549022	aliados	-0.05462214
-4.549022	tucano	-0.05875769
-4.850052	prevêem	-0.0522376
-3.850052	essas	-0.05499355
-4.850052	lideranças	-0.05875769
-4.549022	ficarão	-0.05838949
-4.850052	neutras.	0.006878403
-4.37293	aí	-0.05559948
-3.619603	alguns	-0.1020545
-4.549022	endereços	-0.0546469
-2.217594	você	-1.573636
-4.850052	divertir	-0.0569998
-4.549022	lá.	-0.219601
-4.850052	controla	-0.05741841
-3.808659	principais	-0.08160651
-4.37293	operações	-0.05205075
-4.850052	micro	-0.04641403
-4.850052	cérebro.	0.006878403
-4.850052	greve	-0.05875769
-4.549022	convocada	-0.05566126
-4.850052	aeroportuários	-0.05608733
-4.071901	mês.	-2.934352
-3.736109	nem	-0.07825156
-4.850052	hospitalidade	-0.05876382
-4.850052	baiana	-0.05818685
-4.850052	jus	-0.05792266
-4.850052	fama.	0.006878403
-3.28185	maior	-0.3518375
-4.37293	títulos	-0.04843511
-4.850052	raros	-0.05667942
-4.850052	rolos	-0.0559577
-4.850052	largura.	0.006878403
-3.043872	contra	-1.042604
-4.850052	honduras	-0.04813349
-4.247992	única	-0.05570451
-4.37293	imagem	-0.05421942
-3.05766	era	-0.5023919
-4.549022	gerada	-0.05837721
-4.549022	globo.	-0.219601
-4.850052	agência	-0.05837107
-4.549022	possui	-0.05857362
-4.071901	profissionais	-0.1022817
-4.850052	cadastrados.	0.006878403
-4.004954	devem	-0.4117428
-4.549022	vendo	-0.04674838
-4.850052	américas	-0.05868407
-3.703924	sob	-0.4872228
-4.850052	ótica	-0.05876382
-4.850052	totalmente	-0.05876382
-4.850052	deturpada.	0.006878403
-4.004954	junto	-0.09485153
-3.645932	dela	-0.9554392
-4.549022	livros	-0.04938259
-4.850052	contabilidade	-0.0546469
-4.850052	bicheiro.	0.006878403
-4.850052	vocabulário	-0.05644515
-4.850052	sexualidade	-0.05692589
-4.850052	reaparecendo	-0.05876382
-4.850052	progressivamente	-0.05839563
-3.619603	dez	-0.3600648
-4.850052	consultas	-0.0586718
-3.004954	ou	-0.4398945
-4.247992	computador.	-1.600091
-4.850052	abandonou	-0.04813349
-4.850052	frança	-0.04641403
-4.37293	fixou	-0.03148769
-4.247992	estes	-0.05643282
-4.549022	resolvidos	-0.05594536
-3.0719	duzentos	-1.509178
-4.549022	imóveis	-0.05819299
-4.37293	oferecidos	-0.1928054
-3.736109	mês	-0.02047423
-3.452112	apenas	-0.1308385
-4.850052	comercializados.	0.006878403
-4.549022	biscaia	-0.0586534
-3.850052	esses	-0.05426902
-4.37293	negócios	-0.05464071
-4.850052	relacionados	-0.05749839
-4.850052	bicho.	0.006878403
-4.850052	augusto	-0.04844767
-4.850052	toledo	-0.0572584
-4.37293	vida.	-0.1901874
-4.549022	envolvimento	-0.05360534
-4.850052	empregados	-0.05375429
-4.151082	fundamental	-0.1266845
-4.850052	conquistar	-0.05875155
-4.37293	clientes.	-0.1901874
-3.216583	todo	-0.7022958
-4.850052	trabalharam	-0.05848157
-3.177954	ontem.	-2.934352
-4.549022	resta	-0.05862272
-4.37293	aprovar	-0.04626886
-4.850052	sancionar	-0.04813349
-3.469841	nova	-0.4834812
-4.549022	lei.	-0.219601
-4.850052	raro	-0.0522376
-4.151082	algum	-0.04568135
-4.850052	documentário	-0.05874542
-4.247992	esteja	-0.1538632
-4.850052	lista	-0.05875769
-4.549022	almoço	-0.0583281
-4.549022	rápido	-0.05779972
-3.168811	entre	-0.4689718
-3.527833	amigos.	-2.934352
-3.895809	nesta	-0.05836494
-3.549022	partida	-0.7280355
-4.071901	seleção	-0.03928772
-4.850052	jorginho	-0.05876382
-4.850052	contundiu	-0.0453019
-4.549022	pé.	-0.219601
-4.850052	acabo	-0.04844767
-4.37293	receber	-0.04382519
-4.549022	crítica	-0.04663486
-4.549022	elogiosa	-0.05854908
-3.571298	canadá.	-2.934352
-4.850052	gravações	-0.0586718
-4.850052	ligar	-0.05876382
-4.850052	bicheiros	-0.05749839
-4.37293	tráfico	-0.1856597
-4.37293	drogas.	-0.1901874
-4.850052	densidade	-0.05876382
-4.850052	teatral	-0.05840177
-3.0719	ficou	-0.9759898
-4.549022	prejudicada	-0.05862272
-4.850052	frequentes	-0.05875769
-4.850052	comerciais.	0.006878403
-3.488324	mesmo	-0.09500322
-4.850052	alemanha	-0.04813349
-4.850052	positiva.	0.006878403
-4.850052	exibida	-0.05608733
-3.318573	duas	-0.3132243
-4.549022	partes	-0.05464071
-4.850052	renderia	-0.0569998
-4.151082	mais.	-2.934352
-4.37293	autora	-0.05463452
-4.37293	viva	-0.04138046
-4.549022	estudada	-0.05558712
-4.850052	universidades	-0.05876382
-4.850052	francesas.	0.006878403
-4.549022	jornal	-0.05867794
-4.071901	nacional	-0.04248993
-4.549022	entrou	-0.0559577
-4.37293	partido	-0.05221269
-3.549022	recebeu	-1.047225
-3.37293	dinheiro	-0.5462313
-4.850052	sujo.	0.006878403
-4.549022	patrocínio	-0.05875769
-4.850052	rende	-0.05792266
-4.549022	cbf	-0.04551696
-4.37293	vírgula	-0.05413883
-4.549022	passeio	-0.05701212
-3.452112	pôde	-1.431412
-4.850052	impopularidade	-0.0546469
-4.850052	colega	-0.05875769
-4.549022	argentino.	-0.219601
-2.895809	vai	-0.7449303
-4.37293	cauteloso	-0.05600091
-4.850052	enfrentar	-0.0453019
-3.318573	paulo	-0.4422672
-4.850052	experimentaram	-0.05872088
-3.946962	vários	-0.105167
-4.850052	comidas	-0.05876382
-4.850052	exóticas	-0.0585184
-4.850052	viagem.	0.006878403
-4.850052	faltando	-0.05849384
-4.850052	devolução	-0.0546469
-4.549022	aérea.	-0.219601
-3.895809	produtos	-0.08841881
-4.247992	vendidos	-0.05015911
-4.850052	nestas	-0.05876382
-4.850052	estantes	-0.05843246
-4.850052	doados	-0.05702444
-3.703924	empresas	-0.06959503
-4.850052	particulares.	0.006878403
-4.37293	estudo	-0.05314576
-4.549022	interessante	-0.04635723
-4.850052	sofisticado	-0.05809471
-3.435078	suas	-0.07920653
-4.850052	conclusões	-0.05747378
-4.850052	óbvias.	0.006878403
-4.850052	autoridade	-0.05876382
-4.850052	palestina	-0.05876382
-4.850052	libertou	-0.0585184
-3.237268	ontem	-0.5571367
-4.850052	integrantes.	0.006878403
-4.37293	diretoria	-0.05229364
-4.850052	tomará	-0.05874542
-4.004954	fevereiro.	-2.934352
-3.37293	começa	-0.7881368
-4.850052	ilhéus	-0.0453019
-4.071901	terceiro	-0.05862885
-4.850052	seminário	-0.05873315
-3.946962	turismo	-0.0420822
-4.850052	ecológico.	0.006878403
-4.151082	administração	-0.1158451
-4.549022	federação	-0.04810206
-4.549022	obras	-0.05875155
-4.549022	sociais.	-0.219601
-4.151082	plano	-0.04158471
-3.946962	valor	-0.01832516
-4.004954	dezoito	-0.1561878
-4.549022	mil.	-0.219601
-3.594779	estado	-0.1604777
-4.549022	registrou	-0.05873315
-4.850052	índices	-0.04844767
-4.549022	mortalidade	-0.05374808
-4.850052	infantil.	0.006878403
-4.850052	nestor	-0.05876382
-4.850052	pestana	-0.05840177
-3.017543	sessenta	-1.085154
-4.004954	região	-0.02982551
-4.37293	central.	-0.1901874
-4.151082	última	-0.1355817
-4.549022	chuva	-0.05206944
-4.549022	mato	-0.05875155
-4.850052	grosso	-0.0586718
-3.645932	ocorreu	-0.790004
-3.850052	junho.	-2.934352
-4.850052	glória	-0.05876382
-4.850052	funaro	-0.05837107
-4.247992	colocou	-0.05453543
-4.549022	coleção	-0.04556755
-4.850052	outono	-0.05875155
-4.37293	inverno	-0.05631563
-4.850052	prateleiras.	0.006878403
-3.216583	primeira	-0.6829022
-4.004954	pessoa	-0.04419325
-4.37293	abrir	-0.05451685
-4.151082	espaço	-0.05228118
-4.549022	você.	-0.219601
-4.549022	dieta	-0.0557601
-4.37293	atletas	-0.05860431
-4.850052	rica	-0.04641403
-3.594779	fácil	-1.006358
-4.850052	digestão.	0.006878403
-2.97499	estava	-0.6496145
-4.37293	calor	-0.02890005
-4.850052	soubemos	-0.05876382
-4.850052	dosar	-0.04813349
-4.37293	energia.	-0.1901874
-4.247992	propostas	-0.1466485
-3.770871	política	-0.05954101
-4.247992	econômica	-0.1437085
-4.37293	poucas	-0.04637617
-4.850052	imediatas.	0.006878403
-4.850052	acreditavam	-0.0522376
-4.850052	perfeição	-0.05576628
-4.004954	homem	-0.04763661
-4.850052	imortalidade.	0.006878403
-3.469841	nossa	-0.4375551
-4.850052	lua	-0.04844767
-4.850052	mel	-0.05465929
-3.808659	seria	-0.08911338
-4.004954	mesma	-0.05857976
-4.549022	argumenta	-0.05223137
-4.850052	cíntia.	0.006878403
-4.549022	classe	-0.05819299
-4.071901	média	-0.09617998
-4.850052	paulistana	-0.05821756
-2.992719	às	-0.7323773
-4.37293	lojas	-0.04840998
-4.151082	neste	-0.05835265
-4.850052	natal	-0.0559577
-4.850052	apetite.	0.006878403
-4.850052	recepção	-0.0583281
-3.187294	vezes	-0.679153
-4.850052	falhamos	-0.05608733
-4.247992	momentos	-0.0484037
-4.151082	importantes	-0.0415209
-4.549022	jogo.	-0.219601
-4.151082	sair	-0.126578
-4.247992	ruas	-0.0396276
-4.850052	soldados	-0.05865953
-3.594779	chegam	-1.008568
-4.850052	junto.	0.006878403
-4.37293	fundo	-0.1832851
-4.004954	ações	-0.09848922
-4.850052	retém	-0.0453019
-4.850052	eventualmente	-0.05875155
-4.37293	devido	-0.05407063
-4.850052	resgate.	0.006878403
-4.850052	populismo	-0.05608733
-3.946962	ação	-0.08294291
-4.247992	política.	-1.600091
-3.35869	sou	-0.8243737
-4.850052	normal	-0.04641403
-4.850052	comporto	-0.0546469
-4.850052	jeito	-0.0522376
-4.850052	quiser.	0.006878403
-4.37293	deixe	-0.1856597
-4.37293	entrar	-0.1906063
-4.850052	galeria	-0.05876382
-4.850052	pacífico	-0.05876382
-4.850052	recém	-0.05876382
-4.850052	restaurada	-0.04641403
-4.850052	reformada.	0.006878403
-2.998793	preciso	-0.8871637
-4.850052	reformular	-0.0453019
-4.37293	parlamento	-0.05574774
-4.37293	possa	-0.05856749
-4.549022	atender	-0.04674838
-4.37293	sociedade.	-0.1901874
-4.549022	eduardo	-0.04635723
-3.418688	sente	-1.463579
-4.549022	querido.	-0.219601
-4.151082	contar	-0.05296553
-4.850052	gerados	-0.05829739
-4.850052	licenciamento	-0.04844767
-4.850052	franquias.	0.006878403
-3.619603	rua	-0.6730889
-4.850052	florida	-0.05823598
-4.850052	passarela	-0.05773824
-4.549022	turistas.	-0.219601
-4.850052	américa	-0.05667942
-3.549022	quinto	-1.054066
-4.549022	pontos.	-0.219601
-4.850052	ocorrência	-0.05692589
-4.549022	registrada	-0.05554387
-4.850052	homicídio	-0.05876382
-4.850052	culposo	-0.05465929
-4.850052	intencional.	0.006878403
-4.850052	maridos	-0.05465929
-4.549022	reclamações	-0.04567503
-2.905569	fazer	-0.6374449
-4.37293	outro.	-0.1901874
-4.549022	carlos	-0.05873315
-3.109689	conta	-1.078938
-4.151082	vê	-0.04339327
-4.850052	oscar.	0.006878403
-4.850052	portuguesa	-0.05824212
-4.850052	inacabado	-0.0559577
-4.850052	andré.	0.006878403
-4.247992	revista	-0.0551482
-4.850052	mandaram	-0.0522376
-4.850052	comportasse	-0.05822984
-4.549022	homem.	-0.219601
-4.549022	oportunidade	-0.04537149
-3.619603	mercado	-0.3115333
-4.850052	observar	-0.05606881
-4.850052	talentos	-0.05765831
-4.850052	promissores.	0.006878403
-3.216583	vamos	-0.7236909
-4.37293	esquecer	-0.2423677
-4.071901	passado	-0.04040254
-4.247992	presente	-0.0354214
-3.387654	futuro.	-2.934352
-4.37293	avaliação	-0.05761525
-4.247992	desempenho	-0.0429482
-4.850052	individual	-0.05862885
-4.549022	executivo	-0.05725225
-4.549022	metas	-0.05875769
-4.850052	anuais.	0.006878403
-4.850052	anistia	-0.05873315
-4.071901	voltou	-0.5011815
-4.247992	prática	-0.04174422
-4.549022	década	-0.04829061
-4.850052	cinqüenta.	0.006878403
-4.549022	cruzeiro	-0.05869021
-3.895809	real	-0.08742262
-4.004954	continua	-0.04795115
-4.850052	valendo	-0.05845088
-4.850052	silêncio	-0.05873928
-4.151082	custa	-0.2236829
-2.351741	nove	-1.110423
-4.37293	técnico	-0.05586508
-4.850052	romênia.	0.006878403
-4.549022	próximos	-0.05787349
-3.946962	dias	-0.04254089
-4.549022	enviadas	-0.05737534
-3.895809	outras	-0.05620459
-4.850052	notificações.	0.006878403
-4.850052	segredo	-0.05576628
-3.549022	boa	-0.5802079
-4.850052	salada	-0.05375429
-4.850052	caprichar	-0.05620458
-4.850052	visual.	0.006878403
-4.850052	variação	-0.05375429
-4.071901	menor	-0.1103324
-4.850052	existe.	0.006878403
-3.571298	fiz	-2.986532
-4.37293	procurou	-0.05806399
-4.850052	evitei	-0.05875769
-4.549022	provocar	-0.05875155
-4.850052	marola.	0.006878403
-4.850052	evite	-0.05875769
-4.549022	correr	-0.05748608
-3.770871	banco	-0.09686294
-4.850052	trocar	-0.0453019
-3.571298	dinheiro.	-2.934352
-4.850052	contínua	-0.05874542
-4.247992	exposição	-0.05737534
-4.850052	poluição	-0.05876382
-4.850052	intensa	-0.05875769
-4.549022	favorece	-0.2717813
-4.850052	envelhecimento	-0.05876382
-4.850052	precoce	-0.05644515
-4.850052	pele.	0.006878403
-4.071901	livro	-0.05169553
-4.850052	ilustrado	-0.05702444
-4.850052	zélia	-0.05876382
-4.850052	suassuna	-0.0586534
-3.571298	mulher	-0.7173422
-4.850052	autor.	0.006878403
-4.850052	quorum	-0.05876382
-4.850052	qualificado	-0.05876382
-4.850052	dificultaria	-0.05872088
-4.850052	circunstanciais	-0.05824212
-4.850052	futuros	-0.05876382
-4.850052	governos.	0.006878403
-3.28185	alta	-0.6654382
-3.549022	salvador	-1.043417
-4.850052	manuais	-0.05868407
-3.946962	outubro.	-2.934352
-4.850052	representado	-0.05702444
-4.850052	imensa	-0.05875769
-4.549022	delegação	-0.04840998
-4.151082	pessoas.	-2.934352
-4.37293	inclui	-0.05462832
-2.941567	noventa	-1.035818
-4.37293	vídeo	-0.05592683
-4.247992	fotos	-0.04269367
-4.850052	ilustrações.	0.006878403
-4.37293	autor	-0.05228741
-3.850052	medida	-0.2592605
-4.850052	fere	-0.04813349
-4.37293	legislação	-0.05875155
-4.850052	sanitária.	0.006878403
-4.850052	cristiano	-0.0572584
-4.850052	excepcional	-0.05856749
-3.331538	trabalho	-0.4058649
-4.151082	luz	-0.03450131
-4.850052	enquadramento.	0.006878403
-4.850052	eleitoral	-0.05608733
-4.850052	vigor	-0.05875769
-4.549022	nesses	-0.05817457
-4.850052	vetava	-0.05875769
-4.549022	contribuições	-0.04834087
-4.850052	jurídicas.	0.006878403
-3.023977	quem	-0.6112459
-4.850052	garanta	-0.0522376
-4.850052	craque	-0.05465929
-4.850052	desaprende	-0.04813349
-4.071901	arte	-0.1116096
-4.549022	jogar.	-0.219601
-4.247992	versão	-0.05202584
-4.37293	amor	-0.04843511
-4.850052	tristão	-0.04641403
-4.850052	isolda.	0.006878403
-4.247992	limite	-0.1470319
-4.247992	anterior	-0.04504241
-4.850052	bancários	-0.05838949
-4.850052	médicos	-0.05849384
-4.37293	sabem	-0.04770583
-3.109689	quanto	-0.8179562
-3.0792	tempo	-0.6285144
-3.387654	ficar	-0.5319521
-3.549022	hospital.	-2.934352
-4.850052	sobreviventes	-0.05876382
-4.850052	cremaram	-0.05863499
-4.850052	mortos	-0.04641403
-4.549022	procuram	-0.04529557
-4.850052	reconstruir	-0.05861045
-4.850052	vidas.	0.006878403
-4.151082	times	-0.04810206
-4.850052	perderam	-0.05457259
-4.151082	chance	-0.0394609
-4.37293	atrás	-0.05125265
-4.151082	outra.	-2.934352
-4.37293	vive	-0.05776284
-3.808659	plena	-0.7865597
-4.850052	euforia.	0.006878403
-4.549022	preparam	-0.04505507
-4.549022	transição	-0.05390939
-4.850052	aplicações	-0.05876382
-4.850052	financeiras.	0.006878403
-4.850052	feminino	-0.05805785
-2.785594	fica	-1.169543
-3.237268	quarto	-1.353136
-3.187294	melhor	-0.7128789
-4.549022	colocação	-0.04570032
-4.850052	olimpíadas.	0.006878403
-4.850052	reclamam	-0.0546469
-4.549022	consideram	-0.05875769
-4.850052	excessivo	-0.05874542
-4.247992	dentro	-0.1428594
-4.850052	estádio.	0.006878403
-4.071901	entanto	-0.04274458
-4.549022	lembra	-0.03432615
-4.549022	automóveis	-0.05833423
-4.850052	japoneses.	0.006878403
-4.247992	geração	-0.18725
-4.850052	zico	-0.05465929
-4.850052	campeã	-0.0546469
-4.850052	desculpas	-0.05576628
-4.549022	mau	-0.05869021
-4.37293	fizemos	-0.05527806
-4.850052	arábia.	0.006878403
-4.247992	membros	-0.2787793
-4.850052	opõe	-0.05792266
-4.151082	paz	-0.1264777
-4.850052	continuam	-0.05875769
-4.549022	presos.	-0.219601
-4.850052	salário	-0.05871475
-4.247992	médio	-0.1408058
-4.850052	varejo	-0.05876382
-4.850052	aumenta	-0.05872088
-3.946962	doze	-0.3442912
-4.151082	passado.	-2.934352
-4.850052	arredondou	-0.04813349
-4.37293	idade	-0.04213317
-4.850052	percussionista	-0.05576628
-4.850052	gratuito	-0.04641403
-4.850052	tóquio	-0.0453019
-4.247992	dólar	-0.05870248
-4.850052	fechou	-0.05876382
-4.850052	cotado	-0.04813349
-2.35869	oito	-1.024978
-4.850052	ienes.	0.006878403
-4.37293	modelo	-0.05691357
-4.850052	reestilizado	-0.04641403
-3.619603	ganhou	-0.5828672
-4.549022	linhas	-0.05353706
-4.850052	agressivas.	0.006878403
-3.736109	time	-0.05359938
-4.549022	diagnóstico	-0.05188876
-4.850052	generoso.	0.006878403
-4.850052	incomodou	-0.05869021
-4.850052	denunciou	-0.05861045
-3.435078	esse	-0.1451086
-4.549022	detalhe.	-0.219601
-4.850052	assaltava	-0.05855522
-3.305984	desde	-0.7158099
-4.37293	amigos	-0.1834745
-3.247992	todos	-0.5639154
-4.247992	regra	-0.144676
-4.549022	definir	-0.05318305
-4.151082	máximo	-2.989678
-3.507629	outro	-0.495931
-4.151082	exemplo	-0.1503334
-4.850052	beterraba	-0.05457259
-4.37293	alternativa	-0.1917042
-4.850052	cenoura.	0.006878403
-4.850052	mercenária	-0.0522376
-4.850052	conheci.	0.006878403
-4.37293	época	-0.1846094
-4.850052	criatividade	-0.05862885
-3.488324	caiu	-0.7069941
-3.808659	pouco	-0.09929419
-4.37293	década.	-0.1901874
-4.37293	basta	-0.04797002
-4.151082	vitória	-0.05538935
-4.850052	classificar	-0.05576628
-4.850052	semifinais.	0.006878403
-4.549022	perdeu	-0.03255103
-4.850052	puseram	-0.05876382
-4.850052	nele	-0.04813349
-4.850052	culpa	-0.05838949
-4.850052	derrota.	0.006878403
-4.850052	crescem	-0.05741841
-4.850052	baixas	-0.05876382
-4.850052	civis	-0.05608733
-3.619603	república	-1.280746
-4.850052	separatista	-0.04844767
-4.850052	majoritariamente	-0.05876382
-4.850052	muçulmana.	0.006878403
-4.850052	afirmaram	-0.05835265
-3.0792	oitocentos	-1.319847
-4.850052	entrevistados.	0.006878403
-4.549022	desejo	-0.2802337
-4.850052	apareça	-0.05848771
-3.187294	logo	-0.8449074
-4.850052	doador.	0.006878403
-3.549022	atacante	-0.849651
-4.850052	comemorou	-0.0453019
-4.549022	gol	-0.05643898
-4.850052	imitando	-0.05318926
-4.850052	diabo	-0.05876382
-4.850052	símbolo	-0.0546469
-4.850052	américa.	0.006878403
-3.452112	depois	-0.3122904
-4.850052	baiano	-0.05876382
-4.850052	retribuir	-0.05741841
-4.850052	homenagens.	0.006878403
-4.549022	críticos	-0.05464071
-4.850052	diziam	-0.0522376
-4.850052	bastava	-0.05318926
-4.850052	cumprir	-0.05861045
-4.549022	papel.	-0.219601
-4.549022	artilheiro	-0.05818685
-4.151082	viola	-0.04051771
-4.850052	intermediária	-0.04641403
-4.850052	avançou	-0.05576628
-4.247992	gol.	-1.600091
-4.850052	conseguirmos	-0.05457259
-4.549022	alcançou	-0.05299039
-3.37293	demais.	-2.934352
-3.488324	sendo	-0.4518437
-4.549022	assembléia	-0.04640772
-4.850052	legislativa	-0.05876382
-4.850052	aprove	-0.0453019
-3.318573	nome.	-2.934352
-4.549022	senadores	-0.05860431
-4.850052	votaram.	0.006878403
-4.850052	cometeu	-0.05789807
-4.549022	faltas	-0.04819006
-4.37293	partida.	-0.1901874
-4.850052	vencer	-0.05873928
-4.151082	estará	-0.04411078
-4.850052	classificado	-0.05576628
-4.850052	oitavas	-0.04844767
-4.37293	final.	-0.1901874
-4.850052	maternidade	-0.05866567
-4.850052	capacitada	-0.05576628
-4.247992	realizar	-0.1555851
-4.850052	partos.	0.006878403
-4.850052	lento	-0.05872088
-3.946962	processo	-0.09048289
-4.549022	recuperação	-0.05875769
-4.850052	evidencia	-0.0453019
-4.37293	cuidado	-0.05120896
-4.37293	consumidor.	-0.1901874
-3.226802	comprei	-2.990133
-4.850052	canetas	-0.04641403
-4.850052	visitá	-0.05875769
-3.226802	casa.	-2.934352
-4.850052	irmãos	-0.05876382
-4.850052	gêmeos	-0.05875769
-4.549022	jogam	-0.05584039
-4.247992	holanda	-0.04122083
-4.850052	adversária	-0.0546469
-3.206599	brasil.	-2.934352
-3.895809	tipo	-0.998724
-4.850052	inesquecível	-0.05375429
-4.549022	advogado	-0.05464071
-4.850052	francisco	-0.05876382
-4.850052	rangel	-0.05876382
-4.850052	pestana.	0.006878403
-4.549022	variado	-0.04963323
-4.549022	finalizações	-0.04241351
-4.247992	ganha	-0.03994159
-3.125776	três.	-2.934352
-4.549022	leva	-0.04811463
-4.37293	vantagem	-0.03732664
-4.850052	penetração	-0.04641403
-4.850052	pontaria.	0.006878403
-4.37293	produtores	-0.05364258
-4.850052	andam	-0.0569998
-4.850052	tímidos	-0.05465929
-4.549022	assumem	-0.05317683
-4.549022	riscos.	-0.219601
-4.549022	mário	-0.04844139
-4.549022	andrade	-0.04529557
-4.549022	converte	-0.2825668
-4.850052	protótipo	-0.0546469
-4.549022	artista	-0.05462214
-4.071901	nacional.	-2.934352
-4.850052	receio	-0.05838949
-4.549022	fossem	-0.04529557
-4.850052	descobertos	-0.05866567
-4.850052	soldados.	0.006878403
-4.850052	consagrou	-0.05876382
-4.850052	pintores	-0.05861658
-4.37293	mérito	-0.05139617
-4.850052	temático.	0.006878403
-4.850052	deslocamentos	-0.05576628
-4.850052	dentista	-0.05873928
-4.850052	apresentava	-0.05875769
-4.850052	humor.	0.006878403
-4.850052	operação	-0.05375429
-4.37293	através	-0.04182077
-4.850052	emissão	-0.04844767
-4.549022	fiscais	-0.05464071
-4.850052	frias.	0.006878403
-4.850052	acaso	-0.0522376
-4.549022	detetive	-0.05873928
-4.247992	dessas	-0.05870861
-4.37293	histórias	-0.04712657
-4.850052	padre.	0.006878403
-4.850052	perdendo	-0.05870248
-4.850052	identidade.	0.006878403
-4.850052	retirado	-0.05876382
-4.850052	embaixo	-0.04641403
-4.151082	tanto	-0.04910671
-4.850052	acrescido	-0.05608733
-4.549022	cima.	-0.219601
-4.850052	perdoe	-0.0453019
-4.247992	leitor	-0.1550304
-4.850052	considerações	-0.05876382
-4.850052	inspiradas	-0.05620458
-4.004954	clima	-0.09098341
-4.850052	evocação	-0.05876382
-4.850052	natalino.	0.006878403
-4.004954	saber	-0.1757042
-4.151082	fazem	-0.122328
-3.850052	campo.	-2.934352
-4.850052	empregado	-0.0546469
-4.850052	europeu	-0.05581569
-4.850052	ligações	-0.0559577
-4.850052	bancada	-0.05876382
-4.850052	socialista.	0.006878403
-4.151082	atividade	-0.04597836
-4.850052	agrícola	-0.05875769
-4.549022	aliás	-0.05364879
-3.549022	filho	-0.6397945
-4.850052	bisol.	0.006878403
-4.850052	truque	-0.05862885
-4.37293	aproveitar	-0.05514819
-3.125776	bem	-0.8447965
-4.850052	madrugada.	0.006878403
-4.850052	afirmam	-0.0522376
-4.004954	vão	-0.05511108
-4.247992	recorrer	-0.04133577
-4.850052	empréstimos.	0.006878403
-3.594779	crianças	-0.6121653
-4.850052	alimentadas	-0.0559577
-4.850052	merenda	-0.04641403
-4.850052	irão	-0.04813349
-4.850052	turísticos.	0.006878403
-4.850052	sintoma	-0.05876382
-4.850052	sumiu	-0.05608733
-4.247992	poucos	-0.04634461
-3.402894	deixou	-0.7800771
-4.247992	nenhuma	-0.0586718
-4.850052	sequela.	0.006878403
-4.549022	rússia	-0.04218416
-4.549022	adversários	-0.05791037
-4.549022	altura	-0.05161448
-3.895809	pesquisa	-0.131271
-4.850052	procon	-0.05608733
-4.850052	convênio	-0.0559577
-3.226802	nosso	-0.552955
-4.850052	departamento.	0.006878403
-3.151082	nós	-0.7908993
-3.469841	temos	-0.4403306
-4.549022	lema	-0.0577075
-4.151082	água	-0.05556859
-4.850052	umbigo	-0.05876382
-4.850052	sinal	-0.04844767
-4.850052	perigo.	0.006878403
-4.850052	bancas	-0.04844767
-4.850052	paraná	-0.05872702
-4.549022	vender	-0.05861658
-4.549022	preservativos	-0.0560503
-4.549022	carnaval.	-0.219601
-4.850052	estudou	-0.05876382
-4.850052	teologia	-0.05876382
-4.850052	espiritual	-0.0585184
-4.850052	chateada	-0.0559577
-4.850052	foto.	0.006878403
-4.850052	filósofo	-0.05875769
-4.850052	simas	-0.05821756
-4.549022	decisão.	-0.219601
-4.549022	relator	-0.04529557
-4.850052	acusa	-0.05876382
-4.850052	fraude	-0.04844767
-3.946962	bilhões	-0.6467956
-3.703924	disse	-0.544606
-2.900662	ter	-0.7479095
-4.850052	citado	-0.05606881
-4.549022	exemplos	-0.2749271
-4.850052	moralidade.	0.006878403
-4.549022	errou	-0.04487145
-4.850052	passes	-0.05876382
-4.850052	feitos.	0.006878403
-4.850052	colegial	-0.05738764
-2.497869	quando	-0.9286886
-4.850052	sentiu	-0.05741841
-4.850052	alterações.	0.006878403
-4.850052	australiano	-0.05857977
-4.850052	seguida	-0.0559577
-4.549022	possibilidade	-0.04803919
-4.37293	dada	-0.04365374
-4.37293	policiais	-0.05873315
-4.37293	militares.	-0.1901874
-4.850052	calcinha	-0.05576628
-4.850052	camarote	-0.0546469
-4.850052	sambódromo.	0.006878403
-4.004954	gente	-0.04487144
-4.850052	preferia	-0.05876382
-4.850052	andar	-0.05874542
-4.247992	quilômetros	-0.1869233
-4.850052	casar	-0.05608733
-4.549022	igreja.	-0.219601
-4.850052	venceslau	-0.05876382
-4.850052	braz	-0.05840177
-4.549022	botafogo	-0.04640772
-4.850052	zona	-0.05875769
-4.549022	sul	-0.05464071
-4.549022	rio.	-0.219601
-4.850052	apreensão	-0.05871475
-3.895809	passa	-0.08412969
-4.549022	altos	-0.04638248
-4.850052	baixos.	0.006878403
-4.151082	pobre	-0.041623
-3.895809	feito	-0.0249132
-3.318573	comer	-0.9608358
-4.850052	biscoito.	0.006878403
-4.151082	existem	-0.05642048
-4.850052	péssimas	-0.05876382
-4.850052	edições	-0.0546469
-4.850052	use	-0.0453019
-4.37293	edição	-0.05875155
-4.850052	pensamento.	0.006878403
-4.850052	travesseiro	-0.05876382
-4.850052	aromático	-0.05876382
-4.850052	relaxa	-0.05875155
-4.37293	combate	-0.04595941
-4.850052	insônia	-0.04641403
-4.850052	atua	-0.05822984
-4.850052	sedativo.	0.006878403
-4.549022	prêmios	-0.05875769
-4.850052	quatorze	-0.05843246
-4.37293	trabalhos	-0.1856597
-4.850052	jornalísticos.	0.006878403
-3.305984	enquanto	-0.7711164
-4.850052	avanços	-0.05876382
-4.850052	concentram	-0.05728302
-4.850052	reimplante.	0.006878403
-4.37293	espécie	-0.2455135
-4.850052	ruído	-0.05876382
-4.850052	desaparece	-0.05854908
-3.293749	após	-0.9593095
-3.645932	noite	-0.5451984
-3.571298	sono.	-2.934352
-4.549022	fortalecer	-0.05470882
-4.850052	músculos	-0.04844767
-4.850052	trás	-0.05644515
-4.850052	coxa.	0.006878403
-4.850052	exercitar	-0.0453019
-4.850052	quadríceps	-0.05824212
-4.549022	desequilíbrio	-0.04640141
-4.850052	forçar	-0.05765831
-4.850052	joelho.	0.006878403
-4.850052	despenca	-0.0546469
-4.549022	teto	-0.04570032
-4.850052	direção	-0.05749839
-4.850052	piso.	0.006878403
-4.850052	par	-0.05876382
-4.850052	completo.	0.006878403
-4.850052	ossos	-0.05876382
-4.850052	captam	-0.05741841
-4.549022	vibrações	-0.05229986
-4.549022	membrana	-0.04638879
-4.850052	balançam.	0.006878403
-4.850052	treino	-0.04844767
-4.247992	dezessete	-0.143968
-2.749681	horas	-1.305691
-3.488324	ar	-0.9275796
-4.850052	balançam	-0.04813349
-4.247992	fazendo	-0.03424827
-4.850052	trepidar.	0.006878403
-4.850052	cláudio	-0.05876382
-4.850052	duarte	-0.05859204
-4.850052	gaúcho.	0.006878403
-4.549022	unidade	-0.04844139
-4.850052	taximétrica	-0.05871475
-4.549022	custar	-0.05840177
-4.549022	cruzeiros	-0.05861045
-3.452112	reais.	-2.934352
-4.850052	bastará	-0.0522376
-4.549022	lula	-0.05856135
-4.850052	exiba	-0.05606881
-4.850052	dentes	-0.05874542
-4.247992	diante	-0.1423326
-4.850052	câmeras.	0.006878403
-4.004954	polícia	-0.05420702
-4.37293	iria	-0.05875155
-4.850052	ceder	-0.04813349
-4.850052	exigências.	0.006878403
-3.488324	trem	-0.9374164
-4.850052	partiu	-0.0559577
-4.37293	passageiros	-0.1918218
-4.850052	vagão.	0.006878403
-3.895809	candidato	-0.07469553
-4.850052	dizer.	0.006878403
-4.850052	necessários	-0.05831581
-4.247992	votos	-0.1543885
-4.549022	aragão	-0.05864112
-4.549022	mandato.	-0.219601
-4.850052	cheques	-0.05873315
-4.071901	abaixo	-0.102057
-4.850052	desprezados.	0.006878403
-4.549022	pensando	-0.2825668
-4.247992	voltar	-0.1838637
-4.850052	montadas	-0.05741841
-4.549022	rosto	-0.05873315
-4.850052	funcionam	-0.05822984
-4.850052	portas	-0.04844767
-4.850052	entrada.	0.006878403
-4.850052	corintiano	-0.05874542
-4.247992	afirmou	-1.659207
-3.527833	tarde	-0.7410412
-4.850052	buscar	-0.04813349
-4.850052	namorada.	0.006878403
-4.850052	grêmio	-0.0453019
-2.430096	meia	-1.287648
-4.850052	miguel	-0.05876382
-4.850052	centralizava	-0.0453019
-4.850052	inocentado	-0.05875155
-4.247992	baixo	-0.05845701
-3.247992	número	-1.034142
-4.549022	presentes.	-0.219601
-4.850052	juízes	-0.05874542
-4.247992	poderão	-0.05776898
-4.850052	argumentar	-0.0522376
-4.37293	música	-0.05429379
-4.549022	assim.	-0.219601
-4.850052	fiel	-0.05859817
-4.850052	fiéis	-0.04813349
-3.0792	mim.	-2.934352
-4.850052	acertou	-0.0453019
-4.247992	alvo	-0.1442715
-4.850052	chances.	0.006878403
-4.850052	estrelas	-0.05876382
-4.850052	internacionais	-0.0546469
-4.850052	violão	-0.05865953
-4.37293	marcado	-0.05624777
-4.549022	disputa	-0.05434957
-4.247992	público.	-1.600091
-4.850052	catálogo	-0.05837107
-4.850052	atingem	-0.05871475
-4.850052	tá	-0.05620458
-4.850052	telas	-0.05765831
-4.850052	calúnia	-0.0546469
-4.850052	macaco	-0.05876382
-4.850052	simão.	0.006878403
-3.507629	parque	-1.087152
-3.808659	ilha	-0.2846948
-4.549022	tranqüilidade	-0.05504922
-4.850052	paulista.	0.006878403
-4.850052	derrota	-0.05728302
-4.850052	aprende	-0.05873928
-3.850052	velhas	-1.054085
-4.850052	pele	-0.0586718
-4.850052	elástica	-0.0522376
-4.549022	jovens.	-0.219601
-4.850052	clicar	-0.05842633
-4.549022	olhos	-0.04574457
-4.151082	músicas	-0.04582673
-4.850052	videoclipes.	0.006878403
-4.850052	protestar	-0.05837721
-4.850052	corte	-0.05875769
-4.549022	ilegal	-0.04739112
-4.850052	árvores.	0.006878403
-4.850052	carregamento	-0.04844767
-4.37293	armas	-0.04403464
-4.850052	angola.	0.006878403
-3.594779	televisão	-0.8181877
-4.549022	somam	-0.05630946
-4.850052	ministros.	0.006878403
-3.645932	cartão	-1.245116
-4.549022	amarelo	-0.04636355
-3.946962	domingo	-0.04475745
-4.850052	frequentemente	-0.05875769
-4.549022	responde	-0.05790422
-4.37293	perguntas	-0.05525951
-3.168811	elas	-1.033337
-4.850052	concluídas.	0.006878403
-4.549022	pagamento	-0.05360534
-4.549022	militares	-0.04844139
-4.850052	sairia	-0.04844767
-4.850052	verba	-0.05644515
-4.850052	prefeitura.	0.006878403
-3.318573	ano	-0.6218209
-4.549022	taxa	-0.04331065
-4.151082	inflação	-0.05831581
-3.850052	volta	-0.008623773
-3.549022	subir	-0.8583688
-3.331538	chegou	-0.7588151
-4.850052	atraso.	0.006878403
-4.850052	batizados	-0.05747378
-4.850052	consagrados	-0.04813349
-4.850052	deus	-0.04641403
-4.850052	tender	-0.05792266
-4.850052	santidade.	0.006878403
-3.507629	mostra	-0.8746187
-4.850052	flutuação	-0.05875769
-4.549022	cambial	-0.0481272
-4.850052	suja	-0.04641403
-4.850052	voluntariosa	-0.05692589
-4.850052	tolice.	0.006878403
-3.770871	problemas	-0.0528297
-4.549022	surgem	-0.05402723
-4.549022	importações	-0.04844139
-4.850052	diretas	-0.05875155
-4.37293	via	-0.05874542
-4.850052	catálogos	-0.05702444
-4.549022	exemplo.	-0.219601
-4.850052	expedito	-0.05876382
-4.850052	andrelino	-0.04844767
-4.850052	encarregado	-0.04844767
-4.850052	almoxarifado.	0.006878403
-3.177954	quero	-1.10409
-4.37293	ajudar	-0.05547589
-4.850052	necessário.	0.006878403
-4.37293	jogador	-0.05449826
-4.151082	palmeiras	-0.0563218
-4.247992	único	-0.03967247
-4.549022	lançou	-0.04580777
-4.850052	vezes.	0.006878403
-4.549022	qualidades	-0.04806434
-4.850052	inspiraram	-0.0453019
-4.549022	criação.	-0.219601
-4.850052	batizado	-0.04844767
-4.850052	heitor	-0.0453019
-4.37293	traz	-0.0584386
-4.247992	faixas	-0.05179527
-4.850052	compostas	-0.05829739
-4.850052	guitarrista.	0.006878403
-3.645932	somos	-0.9540784
-4.850052	contingente	-0.05875769
-4.549022	escolhido	-0.04958312
-4.004954	povo	-0.09524092
-4.071901	brasileiro.	-2.934352
-3.703924	forma	-0.05578544
-4.850052	empataram	-0.05815613
-3.043872	um.	-2.934352
-4.071901	início	-0.2079327
-4.071901	campanha	-0.1046118
-4.850052	contestação	-0.05644515
-4.549022	vitória.	-0.219601
-4.37293	comum.	-0.1901874
-4.850052	fabrício	-0.05868407
-4.850052	administrou	-0.05809471
-4.850052	roubou	-0.05318926
-4.850052	sorvete.	0.006878403
-4.151082	países	-0.04727146
-4.850052	avançados	-0.05875155
-4.37293	vêm	-0.04536517
-4.850052	investindo	-0.05876382
-4.850052	pesadamente	-0.05608733
-4.850052	tecnologias	-0.05876382
-4.850052	poupadoras	-0.04844767
-4.37293	água.	-0.1901874
-4.850052	venal	-0.05773824
-4.850052	ajustado	-0.05576628
-4.850052	realidade.	0.006878403
-4.850052	conhecido	-0.05637114
-4.850052	votação.	0.006878403
-4.850052	chocolate	-0.05839563
-4.37293	peso	-0.05305876
-4.850052	consciência.	0.006878403
-4.549022	sérvios	-0.05555005
-4.850052	defenderam	-0.04813349
-4.850052	consolidaria	-0.05863499
-4.850052	ganhos	-0.05875155
-4.850052	decanato	-0.04844767
-4.850052	sagitário	-0.05375429
-4.850052	titã.	0.006878403
-4.37293	medo	-0.1814433
-4.850052	congelamento	-0.05849384
-4.850052	atrapalha	-0.0453019
-4.37293	plano.	-0.1901874
-4.549022	praticamente	-0.2852249
-4.247992	impossível	-0.05836493
-4.37293	controlar	-0.03135051
-4.247992	fogo	-0.0446117
-4.151082	ajuda	-0.1237241
-4.549022	exterior.	-0.219601
-4.549022	guimarães	-0.05875769
-4.850052	rosa	-0.0453019
-4.850052	alquimista	-0.0546469
-4.549022	josé	-0.05855522
-3.318573	maria	-1.068694
-4.549022	martins.	-0.219601
-4.247992	financeiro	-0.04277641
-4.850052	remunera	-0.0453019
-4.850052	úteis.	0.006878403
-4.850052	veloz	-0.05815613
-4.850052	decisões	-0.05876382
-4.850052	impiedoso	-0.0559577
-4.549022	joga	-0.04537149
-4.850052	matar.	0.006878403
-4.071901	queria	-0.1212147
-4.37293	minhas	-0.05873928
-4.37293	próprias	-0.05572304
-4.151082	coisas	-0.02675935
-4.850052	caí	-0.05608733
-4.850052	índio	-0.05844474
-4.37293	constituição	-0.05314576
-4.850052	solicitar	-0.05834651
-4.850052	emancipação.	0.006878403
-4.549022	análise	-0.2749271
-4.850052	viés	-0.05876382
-4.850052	psicológico	-0.05644515
-4.247992	obra	-0.1361607
-4.850052	rosa.	0.006878403
-4.549022	texto	-0.05140241
-4.850052	interpretar	-0.0559577
-4.549022	mínimo	-0.2749271
-4.850052	credibilidade.	0.006878403
-4.850052	reduzido	-0.05792266
-4.850052	urnas.	0.006878403
-4.850052	daria	-0.05608733
-4.37293	ocasião	-0.05400242
-4.850052	quitar	-0.05866567
-4.151082	débito.	-2.934352
-4.850052	libretos	-0.05728302
-4.850052	tornam	-0.05861045
-4.850052	internalizo.	0.006878403
-4.37293	garantia	-0.04330429
-4.850052	agressivo	-0.05876382
-4.850052	participante	-0.0546469
-4.850052	manchete.	0.006878403
-3.469841	acho	-2.993468
-4.850052	gastrite	-0.05692589
-4.850052	descarga	-0.05644515
-4.850052	psicológica	-0.05620458
-4.850052	márcia	-0.05876382
-4.850052	pinheiro	-0.05876382
-4.850052	confere	-0.05741841
-4.850052	passarelas	-0.05644515
-3.619603	estação	-0.8029149
-4.549022	europa.	-0.219601
-4.850052	irlanda	-0.05876382
-4.850052	tornou	-0.05728302
-4.850052	reino	-0.05875769
-4.549022	unido.	-0.219601
-4.850052	confuso	-0.05870861
-3.527833	perto	-0.8903211
-4.850052	censo	-0.05876382
-4.850052	demográfico	-0.05871475
-4.850052	agrupa	-0.05608733
-4.549022	setores	-0.05862272
-4.850052	distintos.	0.006878403
-4.151082	intenção	-0.119936
-4.37293	central	-0.05367982
-3.67396	tocar	-1.219639
-4.247992	projetos	-0.1372736
-4.549022	fábio	-0.05859204
-4.850052	armados.	0.006878403
-4.850052	alcorão	-0.05875155
-4.850052	revisado	-0.05876382
-4.850052	cuidadosamente.	0.006878403
-4.850052	revelado	-0.05876382
-4.850052	posteriormente	-0.05875155
-4.37293	levantamento	-0.0542752
-4.850052	finlândia.	0.006878403
-4.850052	conscientizando	-0.05644515
-4.549022	preparando	-0.0557601
-4.850052	psicologicamente.	0.006878403
-4.850052	cadeia.	0.006878403
-4.549022	substitui	-0.05872702
-4.850052	magalhães	-0.0522376
-4.37293	pediu	-0.04811463
-4.549022	demissão	-0.05433098
-4.37293	mim	-0.05374188
-4.850052	agüentar.	0.006878403
-4.850052	desgaste	-0.05859817
-4.850052	doente.	0.006878403
-4.850052	organizadores	-0.04813349
-4.850052	municipalização	-0.0546469
-4.850052	ecoturismo	-0.05375429
-4.850052	proposta.	0.006878403
-4.247992	falta	-0.1279874
-4.850052	concordar	-0.05576628
-4.549022	negócio	-0.05461594
-4.004954	seja	-0.1117488
-4.37293	feito.	-0.1901874
-4.151082	haverá	-0.1259384
-4.549022	concurso	-0.0557601
-4.549022	contratar	-0.05406443
-4.850052	professores.	0.006878403
-4.37293	atribuiu	-0.04097167
-4.850052	façanha	-0.04844767
-4.850052	segurado	-0.0453019
-4.850052	grito.	0.006878403
-3.808659	saiu	-0.7936068
-3.177954	tempo.	-2.934352
-4.850052	comissão	-0.05857362
-4.850052	composta	-0.05702444
-4.850052	fifa	-0.04641403
-4.850052	afa.	0.006878403
-4.549022	moda	-0.05746763
-4.850052	promove	-0.0453019
-4.549022	encontro.	-0.219601
-3.507629	procuro	-1.312578
-4.850052	atualizado	-0.05875155
-4.850052	pavimento	-0.05870248
-4.549022	destinado	-0.0549131
-4.850052	residência	-0.0546469
-4.850052	idosos.	0.006878403
-4.549022	câmara	-0.0576952
-4.850052	quinhentas	-0.04641403
-4.850052	cadeiras.	0.006878403
-4.850052	cutuque	-0.0453019
-4.850052	proíba	-0.0453019
-4.850052	dormir	-0.04844767
-4.850052	barriga	-0.05576628
-4.549022	enorme	-0.05871475
-4.247992	potencial	-0.02602579
-4.247992	pública.	-1.600091
-4.850052	passatempo	-0.05876382
-4.850052	predileto	-0.04844767
-4.850052	leontina	-0.05857362
-4.850052	esnobar	-0.04813349
-4.850052	olga.	0.006878403
-3.895809	covas	-0.04790715
-4.850052	dizendo	-0.0522376
-4.850052	ganhavam	-0.05843246
-3.109689	mal.	-2.934352
-4.850052	análises	-0.05875769
-4.549022	apontam	-0.04801404
-3.571298	quais	-0.6341168
-4.247992	praias	-0.04205031
-3.344902	banho.	-2.934352
-4.549022	comete	-0.04528924
-4.549022	erro	-0.05373567
-4.37293	várias	-0.05846316
-4.850052	impunemente.	0.006878403
-4.850052	declividade	-0.05875769
-4.549022	exige	-0.04893734
-4.850052	acompanhamento	-0.04844767
-4.850052	engenharia	-0.04844767
-4.850052	solos.	0.006878403
-4.850052	fixos	-0.05875769
-4.549022	caíram	-0.05570451
-3.946962	resultado	-0.04873025
-4.549022	registrado	-0.05410163
-4.850052	metropolitana	-0.04844767
-4.850052	dali	-0.05873928
-4.151082	poderá	-0.134531
-4.850052	surgir	-0.05457259
-4.850052	valorização	-0.05644515
-4.151082	cultura	-0.05354326
-3.226802	casa	-0.647039
-4.850052	estaria	-0.05875155
-4.37293	localizada	-0.1907243
-4.850052	pavimentos.	0.006878403
-3.946962	parece	-0.07972146
-4.549022	torcendo	-0.05566126
-3.736109	estados	-0.297057
-4.247992	unidos	-0.1419578
-4.549022	datafolha	-0.05374808
-4.850052	divulgada	-0.0585184
-4.850052	revela	-0.0522376
-4.549022	enéas	-0.05873315
-4.549022	subiu	-0.05075934
-4.850052	percentual.	0.006878403
-4.37293	prefeito	-0.1959637
-4.850052	haroldo	-0.05876382
-4.850052	bezerra	-0.05876382
-4.850052	distribuiu	-0.05876382
-4.850052	cestas	-0.05875769
-4.549022	básicas	-0.0481272
-4.850052	novecentas	-0.05876382
-4.850052	famílias	-0.05876382
-4.850052	desalojadas.	0.006878403
-4.549022	iniciou	-0.05047183
-3.527833	cidade	-0.4454528
-4.37293	desemprego.	-0.1901874
-4.549022	interessa	-0.05834037
-4.850052	pesquisas	-0.05875769
-4.549022	eleitorais.	-0.219601
-4.151082	pratos	-0.0563218
-4.247992	base	-0.1443284
-4.850052	peixe	-0.04641403
-4.850052	frutos	-0.0546469
-3.571298	mar.	-2.934352
-4.151082	papel	-0.04807062
-4.850052	aceita	-0.05876382
-4.850052	encomendas	-0.04844767
-4.850052	embalagens	-0.05845088
-3.488324	vinte.	-2.934352
-4.850052	margem	-0.04844767
-4.850052	percentuais.	0.006878403
-4.850052	emocionante	-0.05606881
-4.850052	encontrarem	-0.05792266
-4.850052	bosque.	0.006878403
-4.151082	vale	-0.1176332
-4.549022	pena	-0.05842018
-4.850052	visita	-0.05749839
-3.619603	museu	-1.281231
-4.850052	arqueológico.	0.006878403
-4.850052	juliana	-0.05868407
-4.850052	surpresa.	0.006878403
-4.549022	paciente	-0.04830317
-3.549022	bem.	-2.934352
-4.247992	cargo	-0.0460289
-4.549022	contribuir	-0.05595153
-4.850052	coisíssima	-0.05876382
-4.850052	nenhuma.	0.006878403
-3.736109	problema	-0.5340115
-4.549022	demora	-0.05059061
-4.247992	cair.	-1.600091
-4.850052	monte	-0.04844767
-4.850052	abraçando	-0.04641403
-4.850052	chorando.	0.006878403
-4.850052	pia	-0.05876382
-4.850052	batismal	-0.04844767
-4.850052	mármore	-0.0572584
-4.549022	metros	-0.2749271
-4.850052	diâmetro.	0.006878403
-4.850052	visitados	-0.05852453
-4.850052	delegações	-0.04844767
-4.549022	empresários.	-0.219601
-4.850052	leis	-0.04641403
-4.549022	segredos	-0.04951419
-4.850052	cigano	-0.05875769
-4.549022	sabe.	-0.219601
-4.850052	termômetros	-0.05876382
-4.850052	descem	-0.05875769
-4.549022	facilmente	-0.05746148
-3.28185	zero.	-2.934352
-4.850052	exilados	-0.05875769
-4.549022	voltaram	-0.04554226
-4.549022	faixa	-0.04422497
-4.850052	gaza.	0.006878403
-4.850052	israel	-0.05875155
-4.37293	mantém	-0.04527659
-4.549022	responsabilidade	-0.0533694
-4.004954	defesa	-0.08975743
-4.549022	externa.	-0.219601
-2.992719	tenho	-1.208214
-4.850052	entusiasmo	-0.05576628
-4.549022	coisas.	-0.219601
-4.850052	amostragem	-0.05876382
-4.850052	estratificada.	0.006878403
-4.850052	arrecadado	-0.05866567
-4.850052	templos	-0.05875155
-4.850052	dízimo.	0.006878403
-4.549022	beijando	-0.03432615
-4.850052	erundina	-0.05875769
-4.850052	erundina.	0.006878403
-4.850052	jair	-0.05876382
-4.850052	pereira	-0.05465929
-4.850052	conseguia	-0.05874542
-4.247992	criar	-0.05603178
-4.850052	oportunidades	-0.04844767
-4.549022	universidade	-0.0460668
-4.850052	paris	-0.05650065
-4.850052	faz.	0.006878403
-4.549022	outros.	-0.219601
-4.850052	oficinas	-0.04844767
-4.850052	parceiros	-0.05644515
-4.850052	mata	-0.05876382
-4.850052	atlântica	-0.05861658
-4.850052	chamadas	-0.04844767
-4.850052	estações.	0.006878403
-4.850052	respondeu	-0.0522376
-4.850052	frase	-0.05860431
-4.850052	tirada	-0.0546469
-4.850052	contexto.	0.006878403
-4.549022	representante	-0.04582041
-4.247992	costuma	-0.05636497
-4.549022	discutir	-0.05561184
-4.247992	aberto	-0.04320258
-4.850052	roubalheira.	0.006878403
-4.850052	exatas	-0.05856135
-4.850052	semanas	-0.05576628
-4.850052	comece	-0.04844767
-4.850052	corrida	-0.05873928
-4.151082	eleitoral.	-2.934352
-4.151082	segurança	-0.1077027
-4.850052	rigorosas	-0.05875769
-4.549022	deverão	-0.05803327
-4.850052	adotadas.	0.006878403
-4.850052	levanta	-0.04813349
-4.850052	bíblia	-0.0453019
-4.850052	televisão.	0.006878403
-4.850052	conceito	-0.05849384
-4.850052	soa	-0.05867794
-4.549022	estranho	-0.05279143
-4.37293	começam	-0.04504874
-4.850052	investir	-0.05875769
-4.549022	maciçamente	-0.05554387
-4.850052	apareceu	-0.05318926
-4.850052	desgraçado	-0.05855522
-4.549022	montar	-0.05302768
-4.850052	pólo	-0.05876382
-4.850052	moveleiro.	0.006878403
-4.850052	coréia	-0.05876382
-4.850052	exporta	-0.05318926
-4.549022	móveis	-0.05701828
-4.37293	fase	-0.04039615
-4.37293	sensação	-0.1814433
-4.850052	time.	0.006878403
-4.151082	participar	-0.04134854
-4.549022	atividades	-0.05374808
-4.850052	inscrever.	0.006878403
-4.850052	apreendeu	-0.05824212
-4.850052	carros	-0.04813349
-4.850052	serviço.	0.006878403
-4.850052	doce	-0.04844767
-4.850052	importa.	0.006878403
-4.850052	filhote	-0.05375429
-4.850052	portador	-0.05644515
-4.37293	patrimônio	-0.1959637
-4.850052	genético	-0.05873928
-4.850052	próprio.	0.006878403
-3.0792	veio	-1.498169
-4.850052	fixando	-0.05728302
-4.37293	porto	-0.05875155
-4.850052	alegre.	0.006878403
-3.344902	extremamente	-1.254937
-4.247992	uso	-0.03462454
-4.850052	materiais	-0.04641403
-4.549022	técnicas.	-0.219601
-4.850052	valeria	-0.05854908
-4.850052	aprovação.	0.006878403
-4.004954	reunião	-0.04161024
-4.549022	consiste	-0.2825668
-4.549022	recusa	-0.04575089
-4.37293	filosofia	-0.03296132
-4.850052	recolhimento	-0.05749839
-4.850052	silêncio.	0.006878403
-4.850052	confederação	-0.05873315
-4.850052	decretou	-0.05876382
-4.850052	luto	-0.05874542
-4.850052	adotar	-0.05872702
-4.850052	penais	-0.05702444
-4.004954	crime	-0.09634973
-4.850052	omissão	-0.04844767
-4.850052	socorro.	0.006878403
-4.549022	nobreza	-0.05746148
-4.850052	concedidos	-0.05838949
-4.850052	rainha	-0.05868407
-4.549022	indicação	-0.04422497
-4.850052	premiê.	0.006878403
-4.850052	típicas	-0.0546469
-4.850052	flutuante	-0.04844767
-4.247992	dólar.	-1.600091
-4.850052	passa.	0.006878403
-4.549022	comparado	-0.04525128
-4.850052	registra	-0.05870248
-3.808659	queda	-0.4393398
-4.549022	investimento	-0.04582041
-4.850052	semifinal	-0.0546469
-4.549022	décimo	-0.2851083
-4.37293	campeonato	-0.0586718
-4.850052	mundial	-0.05876382
-4.850052	feminino.	0.006878403
-3.507629	bahia	-1.390482
-4.37293	aconteceu	-0.05838949
-4.549022	minutos.	-0.219601
-4.549022	retirada	-0.05191992
-4.850052	muçulmanos	-0.05465929
-4.850052	compareceram	-0.0583281
-4.850052	negociações.	0.006878403
-4.37293	acontecer	-0.1854649
-3.645932	dia.	-2.934352
-4.850052	obstáculo	-0.0583281
-4.850052	relações	-0.05876382
-4.850052	afetivas	-0.05375429
-4.850052	competitividade	-0.05876382
-4.850052	interna.	0.006878403
-4.850052	gols	-0.04813349
-4.549022	sairá	-0.05823598
-4.850052	pênaltis.	0.006878403
-4.850052	estimam	-0.05457259
-4.549022	defasagem	-0.05875155
-4.549022	salarial	-0.05574774
-4.37293	torno	-0.2455135
-3.109689	quatrocentos	-1.470962
-4.850052	pressa	-0.04641403
-4.549022	pronto	-0.2822457
-4.850052	agir.	0.006878403
-4.549022	realizada	-0.05588361
-4.850052	optar	-0.05702444
-3.527833	comprar	-0.5708257
-4.850052	separado.	0.006878403
-4.004954	nesse	-0.05808856
-4.850052	instante	-0.05876382
-4.850052	ouvi	-0.05827283
-4.850052	sufocando	-0.05608733
-4.850052	sangue.	0.006878403
-4.850052	desenvolvidos	-0.05606881
-4.850052	publicam	-0.05876382
-4.850052	cadernos	-0.05842633
-4.850052	tema.	0.006878403
-4.37293	questão	-0.1814433
-4.850052	cidadania	-0.0522376
-4.850052	restringe	-0.04813349
-4.850052	produtos.	0.006878403
-4.37293	carne	-0.04425668
-4.549022	perspectiva	-0.0484037
-4.850052	alta.	0.006878403
-4.850052	programação	-0.05644515
-4.850052	exclui	-0.05876382
-4.850052	seriados	-0.0586718
-3.645932	esportes	-0.9433153
-4.850052	auditório.	0.006878403
-4.549022	descarta	-0.0481272
-4.850052	armazéns	-0.04813349
-3.571298	céu	-1.32655
-3.151082	nove.	-2.934352
-4.37293	tirar	-0.05627861
-3.645932	trabalhar	-0.7587079
-4.37293	principal.	-0.1901874
-4.850052	competir	-0.05375429
-4.850052	balela.	0.006878403
-4.247992	contato	-0.1504298
-3.946962	produção	-0.03625559
-4.850052	apurada.	0.006878403
-4.549022	cheio	-0.2749271
-4.549022	pepinos	-0.0547274
-4.850052	tratando	-0.05773824
-4.247992	tinham	-0.05872702
-4.247992	lançado	-0.05781817
-4.850052	discos.	0.006878403
-4.549022	transparente	-0.0437744
-4.549022	gradual	-0.05808857
-4.850052	fruto	-0.04844767
-4.850052	conciliações	-0.04641403
-4.850052	consensos.	0.006878403
-4.850052	melhoria	-0.05644515
-4.004954	qualidade	-0.08605858
-4.850052	técnicos	-0.05834037
-4.850052	divulgar	-0.04813349
-4.071901	idéia	-0.1040816
-4.850052	amotinados	-0.05837107
-4.850052	saído.	0.006878403
-4.850052	mapas	-0.05875769
-4.549022	voltam	-0.04660962
-3.946962	leste.	-2.934352
-4.850052	divertiram	-0.05873928
-4.850052	aplaudiram	-0.04844767
-4.850052	abriu	-0.04813349
-4.850052	pergunta	-0.04844767
-4.850052	pertinente.	0.006878403
-4.850052	empate	-0.05773824
-4.549022	espanhóis	-0.05523478
-4.850052	má	-0.05859204
-3.387654	sorte.	-2.934352
-4.850052	decidirá	-0.05762141
-4.850052	voto	-0.05576628
-4.549022	deputados.	-0.219601
-4.549022	disseram	-0.05223137
-4.850052	satisfeitos	-0.0559577
-4.850052	explicações.	0.006878403
-4.004954	for	-0.1016694
-4.549022	oliveira	-0.05875155
-4.850052	discorda	-0.04844767
-3.35869	joão	-0.7420359
-4.549022	manuel	-0.05848771
-4.071901	num	-0.05865953
-4.850052	ponto.	0.006878403
-4.850052	recusou	-0.05741841
-4.549022	ofertas	-0.0484037
-4.549022	bancos.	-0.219601
-4.004954	preço	-0.08134745
-4.850052	código	-0.05875769
-4.549022	tributário	-0.0577321
-4.247992	permite	-0.04681143
-4.850052	indexação	-0.05773824
-4.37293	impostos	-0.04668531
-4.247992	piloto	-0.05862885
-3.946962	teve	-0.05096549
-4.37293	morte	-0.04833459
-4.850052	cerebral	-0.05876382
-4.850052	instantânea	-0.05620458
-3.946962	momento	-0.1331161
-4.549022	acidente.	-0.219601
-4.850052	latasa	-0.05876382
-4.850052	vinha	-0.05876382
-4.850052	solicitando	-0.05749839
-4.37293	adoção	-0.04182077
-4.850052	medida.	0.006878403
-4.850052	reze	-0.05844474
-4.37293	aparece	-0.05263593
-4.850052	assombração	-0.05608733
-4.549022	supermercados	-0.04625624
-4.247992	mercados	-0.05870248
-4.37293	municipais	-0.191859
-4.850052	permanecerão	-0.05876382
-4.850052	fechados	-0.05871475
-4.850052	terça	-0.05876382
-4.850052	feira.	0.006878403
-4.850052	gabriel	-0.0453019
-4.850052	pensador	-0.05375429
-4.247992	nomes	-0.05488215
-4.850052	confirmados	-0.05871475
-4.850052	lista.	0.006878403
-4.850052	precisar	-0.05876382
-4.850052	abastecer	-0.04813349
-4.850052	geladeira	-0.0583281
-4.850052	tantas	-0.05876382
-4.850052	dificuldades.	0.006878403
-4.850052	concluíram	-0.0522376
-4.850052	aprofundar	-0.0453019
-4.850052	mercosul.	0.006878403
-4.850052	criolita	-0.05837107
-4.850052	vias	-0.04844767
-4.37293	projeto	-0.1832851
-4.850052	mineração.	0.006878403
-4.071901	hora	-0.1701275
-4.151082	desta	-0.05863499
-4.850052	bronzeada	-0.05873315
-4.549022	valor.	-0.219601
-4.850052	pagou	-0.05876382
-4.850052	multa	-0.04844767
-4.850052	porte	-0.04844767
-4.850052	maconha.	0.006878403
-4.850052	sonha	-0.05876382
-4.850052	protagonizar	-0.04813349
-4.850052	espanhola.	0.006878403
-3.35869	carro	-1.061083
-4.850052	rodopiou	-0.05608733
-4.247992	pista	-0.1447896
-4.850052	molhada	-0.04641403
-4.37293	bateu	-0.04224788
-4.850052	caminhão.	0.006878403
-4.850052	tese	-0.05375429
-4.151082	motivo	-0.1174477
-4.549022	preocupação	-0.04843511
-4.549022	constante	-0.05579098
-4.850052	outubro	-0.05834037
-4.549022	novembro	-0.05872702
-4.850052	negociações	-0.0559577
-4.850052	áustria	-0.05876382
-4.850052	continuavam	-0.05608733
-4.850052	eliminarmos	-0.05741841
-4.37293	causas	-0.04606048
-4.850052	automaticamente	-0.05876382
-4.850052	eliminamos	-0.0453019
-3.0792	problema.	-2.934352
-4.850052	nuno	-0.05876382
-4.850052	cobra	-0.05667942
-3.895809	texto.	-2.934352
-4.151082	nenhum	-0.05815613
-4.850052	entusiasmado	-0.04641403
-4.247992	deles	-0.04844139
-4.850052	claro.	0.006878403
-4.247992	dizem	-0.19104
-4.850052	disciplina	-0.05375429
-4.850052	embriagam	-0.0583281
-4.850052	escondidas.	0.006878403
-4.850052	vigilância	-0.05875769
-4.37293	doença	-0.05569215
-4.549022	bairros.	-0.219601
-3.895809	filme	-0.08787686
-4.549022	impacto	-0.05824826
-4.850052	vigoroso	-0.05842633
-4.37293	bebê	-0.05691973
-4.850052	posição	-0.05876382
-4.850052	pélvica	-0.05876382
-4.850052	invertida	-0.05620458
-4.850052	útero.	0.006878403
-4.37293	restaurantes	-0.03811214
-4.549022	oferecem	-0.05873315
-4.850052	feijoada	-0.05876382
-4.850052	carnes	-0.04641403
-3.488324	comida	-0.699058
-4.850052	baiana.	0.006878403
-3.318573	festa	-0.9566049
-4.850052	financiada	-0.05838949
-4.37293	indústria	-0.0441996
-4.549022	cigarros	-0.05875769
-4.850052	cibrasa.	0.006878403
-3.619603	pensam	-1.278122
-4.850052	londres	-0.05620458
-4.549022	vem.	-0.219601
-4.549022	abatimento	-0.05319547
-4.850052	baixando	-0.05876382
-4.850052	gradativamente	-0.05845088
-4.850052	marca	-0.04844767
-4.850052	tetra.	0.006878403
-4.850052	exista	-0.05457259
-4.37293	mulheres.	-0.1901874
-4.850052	fotógrafo	-0.05644515
-4.850052	caras	-0.05866567
-4.850052	linchado	-0.05702444
-4.850052	querer	-0.05875769
-4.549022	fotografar	-0.2825483
-4.850052	feridos.	0.006878403
-4.850052	detentos	-0.05868407
-4.549022	transferidos	-0.05524715
-4.850052	delegacias	-0.0522376
-4.850052	estiverem	-0.05876382
-4.850052	lotadas.	0.006878403
-4.850052	paulistas	-0.05667942
-4.549022	competição.	-0.219601
-4.850052	encontrados	-0.05824212
-4.850052	subprocessos	-0.05876382
-4.850052	organizacionais	-0.05874542
-4.247992	possuem	-0.05856135
-4.850052	próprias.	0.006878403
-4.850052	sandra	-0.05876382
-4.850052	regina	-0.05876382
-4.850052	machado	-0.05862272
-4.549022	enfim	-0.04528924
-4.549022	criou	-0.05318305
-4.850052	juízo.	0.006878403
-4.850052	florianópolis	-0.05692589
-4.549022	graus	-0.05875769
-4.850052	celsius	-0.05608733
-3.435078	domingo.	-2.934352
-4.549022	total	-0.05689509
-4.549022	mísseis	-0.05842632
-4.850052	disparados	-0.05837721
-4.850052	encrave.	0.006878403
-4.247992	secretaria	-0.03142891
-4.549022	estadual	-0.04175698
-4.37293	saúde	-0.05844474
-4.850052	distribuirá	-0.05859817
-4.850052	trezentas	-0.04641403
-4.850052	inauguradas	-0.05608733
-4.37293	território	-0.04842883
-4.549022	americano.	-0.219601
-4.850052	prometo	-0.05872088
-3.946962	nada	-0.08068976
-4.850052	adianta	-0.05532753
-4.850052	prometer	-0.04641403
-3.645932	cumprir.	-2.934352
-4.37293	atualmente	-0.05589596
-4.850052	limitado	-0.04813349
-4.850052	gastos.	0.006878403
-4.850052	lata	-0.04844767
-4.549022	leite	-0.05608116
-4.850052	pó	-0.05875769
-4.549022	integral	-0.05461594
-4.850052	naufragado	-0.05838949
-4.850052	crianças.	0.006878403
-4.850052	colocando	-0.05876382
-4.850052	armadilhas	-0.05815613
-4.850052	fazendas	-0.0578489
-2.67396	onde	-1.238623
-4.850052	ocorreram	-0.05606881
-4.549022	ataques.	-0.219601
-4.549022	razão	-0.03579019
-4.850052	exultante	-0.05822984
-4.37293	virou	-0.0480832
-4.37293	presidente.	-0.1901874
-4.850052	chamados	-0.05789807
-4.549022	candidatos.	-0.219601
-4.549022	conseguiram	-0.05845701
-4.850052	eliminar	-0.05873315
-4.071901	áreas	-0.04647083
-4.850052	supérfluas	-0.05834037
-4.850052	desperdiçadas.	0.006878403
-4.37293	mãe	-0.04174422
-3.469841	todas	-2.996803
-4.071901	reformas	-0.04047932
-4.004954	reforma	-0.1949968
-4.850052	convocados	-0.05702444
-4.37293	vaga	-0.05065935
-4.549022	provável	-0.05854908
-3.571298	acidente	-1.03032
-4.549022	excesso	-0.2749271
-4.850052	lotação	-0.04813349
-4.850052	bordo.	0.006878403
-4.549022	atores	-0.05763371
-4.247992	negros	-0.03843365
-4.850052	espaço.	0.006878403
-4.549022	eleito	-0.05519149
-4.549022	situações	-0.05875155
-4.850052	ditas	-0.05876382
-4.850052	embaraçosas	-0.05747378
-4.850052	resolvidas	-0.0559577
-4.850052	dados.	0.006878403
-4.004954	coisa	-0.1045955
-4.549022	muda	-0.03432615
-3.270268	toda	-1.021111
-4.850052	hora.	0.006878403
-4.247992	risco	-0.2640316
-4.549022	curto	-0.05872088
-4.549022	prazo.	-0.219601
-4.850052	suécia	-0.05859817
-3.344902	país	-0.6298716
-4.850052	preocupado.	0.006878403
-4.151082	serem	-0.05873315
-4.850052	vistas	-0.05608733
-4.549022	paris.	-0.219601
-4.247992	dão	-0.05435576
-4.549022	orientação	-0.05462214
-4.247992	técnica	-0.04937632
-4.850052	voluntários.	0.006878403
-4.549022	torcida	-0.05872702
-4.850052	criticar	-0.04813349
-4.850052	economizou	-0.05876382
-4.850052	críticas.	0.006878403
-4.850052	demanda	-0.05702444
-4.850052	cuja	-0.05875155
-4.37293	cotação	-0.05229364
-4.850052	cai.	0.006878403
-4.37293	diário	-0.04638248
-3.770871	ministério	-0.3271771
-4.850052	consultado	-0.05842633
-3.946962	transação.	-2.934352
-4.549022	moedas	-0.2749271
-4.850052	centavo	-0.05608733
-4.549022	circulação.	-0.219601
-4.071901	desafio	-0.02498612
-4.549022	medicamentos	-0.05846316
-4.850052	secreção.	0.006878403
-4.850052	otimista	-0.05576628
-4.549022	longo	-0.04844139
-4.850052	prazos.	0.006878403
-4.850052	instalado	-0.05608733
-3.67396	avô	-1.212496
-4.850052	lúcia	-0.05876382
-4.850052	flexa	-0.04844767
-4.850052	lima.	0.006878403
-4.850052	comprometeu	-0.04813349
-4.549022	ler	-0.03255103
-4.549022	responder	-0.05711681
-4.850052	correspondência.	0.006878403
-4.151082	começou	-0.7018528
-4.850052	buenos	-0.05876382
-4.850052	aires.	0.006878403
-3.619603	brasileiros	-0.7967393
-4.247992	exterior	-0.05690741
-4.151082	poder	-0.05868407
-4.850052	aquisitivo	-0.05839563
-4.850052	precedentes.	0.006878403
-4.850052	santistas	-0.05875769
-4.549022	deixaram	-0.04528292
-4.850052	gramado	-0.05868407
-4.850052	vaias	-0.05644515
-4.850052	torcida.	0.006878403
-4.37293	delas	-0.05460356
-4.850052	décimos	-0.04844767
-4.850052	centavo.	0.006878403
-4.850052	abordar	-0.05862272
-4.850052	fases	-0.05644515
-4.850052	ópera.	0.006878403
-4.850052	infraero	-0.05849384
-2.920633	sabe	-1.436636
-2.886264	qual	-1.066097
-4.850052	aeroportos	-0.05876382
-4.850052	alexandre	-0.05876382
-4.850052	embarcou.	0.006878403
-4.37293	banda	-0.05635881
-4.850052	tocou	-0.05683348
-4.850052	consolação.	0.006878403
-4.004954	dados	-0.1042456
-4.850052	associação	-0.05873315
-4.850052	fabricantes	-0.04844767
-4.37293	veículos	-0.05846316
-4.850052	automotores.	0.006878403
-4.850052	avançarmos	-0.05815613
-4.850052	ônus.	0.006878403
-4.850052	guarani	-0.05876382
-4.850052	iniciaram	-0.04813349
-4.850052	performances	-0.05876382
-4.850052	semelhantes.	0.006878403
-3.37293	computadores	-1.51759
-4.850052	processam	-0.05845088
-4.151082	informações	-0.0560935
-4.549022	segundo.	-0.219601
-4.151082	último	-0.05578481
-4.850052	feche	-0.04813349
-4.247992	porta	-0.03974938
-4.549022	apague	-0.2746129
-4.850052	luz.	0.006878403
-4.004954	equipe	-0.1746402
-4.549022	americana	-0.05875769
-4.850052	ocupa	-0.04813349
-4.850052	oitava	-0.05876382
-4.850052	posição.	0.006878403
-3.895809	tiveram	-0.04320895
-4.850052	falta.	0.006878403
-4.850052	branco	-0.05818071
-4.850052	qualquer.	0.006878403
-4.850052	desculpável	-0.05608733
-4.850052	vexames	-0.04844767
-4.850052	passarela.	0.006878403
-4.850052	vencedor	-0.04844767
-4.850052	extra.	0.006878403
-4.850052	concentração	-0.0546469
-3.770871	bolo	-1.121936
-4.151082	pequeno	-0.05609967
-4.549022	aumentou.	-0.219601
-4.247992	portanto	-0.05044057
-4.850052	vago	-0.04641403
-4.247992	disponível	-0.1518176
-4.850052	traficante.	0.006878403
-4.850052	turnos	-0.05824212
-4.850052	todos.	0.006878403
-4.37293	organização	-0.1959576
-4.549022	êxito	-0.05556859
-4.850052	campanhas	-0.04844767
-4.850052	vacinação.	0.006878403
-3.527833	houve	-0.7668754
-4.37293	revolução	-0.1958656
-3.619603	debaixo	-1.270485
-4.850052	traves.	0.006878403
-4.549022	definido	-0.04513736
-4.151082	trinta.	-2.934352
-4.850052	casagrande	-0.05875769
-3.895809	banco.	-2.934352
-4.37293	agosto	-0.04515002
-4.850052	classificam	-0.05728302
-4.549022	chave	-0.04505507
-4.850052	quadrangular	-0.05875155
-4.549022	canção	-0.05874542
-4.549022	popular	-0.05374188
-4.850052	veículo	-0.05876382
-4.850052	indiscutível	-0.04844767
-4.850052	informação.	0.006878403
-4.850052	flu	-0.05821756
-4.151082	igreja	-0.04931363
-4.850052	bahia.	0.006878403
-4.850052	secreto	-0.0546469
-4.850052	amar	-0.04641403
-3.619603	metamorfose	-1.2809
-4.850052	publicadas	-0.05608733
-4.850052	roma.	0.006878403
-4.549022	viram	-0.05601326
-3.770871	além	-0.3891919
-4.850052	bandeira.	0.006878403
-4.549022	membro	-0.05049684
-4.37293	clube	-0.04196106
-3.645932	solteiro.	-2.934352
-4.850052	clínico	-0.0572584
-4.850052	deteriorado	-0.04813349
-4.549022	remuneração	-0.04106113
-4.850052	lila	-0.05871475
-4.549022	fundo.	-0.219601
-4.850052	quinta	-0.05876382
-4.850052	feira	-0.05532753
-4.850052	indo	-0.05576628
-4.850052	desfiles	-0.0522376
-4.850052	assisti	-0.05875769
-4.549022	fizeram	-0.04528924
-4.850052	idiota.	0.006878403
-4.549022	cadernetas	-0.0585859
-4.850052	rendem	-0.05789807
-4.37293	quinze.	-0.1901874
-4.850052	moderno	-0.05375429
-4.549022	profissional	-0.04609838
-4.549022	inventar	-0.05874542
-4.850052	desculpas.	0.006878403
-3.216583	falar	-1.329298
-4.37293	câmbio	-0.0463951
-4.247992	juros.	-1.600091
-4.850052	evidente	-0.0522376
-4.549022	evento	-0.05371706
-4.549022	complexo	-0.04836601
-4.850052	organizar.	0.006878403
-4.850052	bandeira	-0.05465929
-4.850052	regional	-0.05844474
-4.850052	existe	-0.05728302
-4.850052	isolar	-0.0546469
-4.549022	desemprego	-0.05374188
-4.850052	particularmente	-0.0586534
-3.571298	grave	-1.024227
-4.37293	mulheres	-0.05210682
-4.151082	jovens	-0.1164291
-4.850052	espanha.	0.006878403
-4.850052	lince	-0.05875155
-4.37293	chegaram	-0.03621681
-4.549022	enxergar	-0.05433718
-4.850052	cusparada.	0.006878403
-3.946962	dessa	-0.1044547
-4.37293	números	-0.03461805
-4.850052	apostados	-0.05747378
-4.549022	retirados	-0.05643898
-4.850052	disputa.	0.006878403
-4.37293	acima	-0.1814433
-4.850052	sobrevivência.	0.006878403
-4.549022	alvos	-0.05875769
-4.850052	limitados	-0.05822984
-4.850052	tanque	-0.05876382
-4.850052	específico.	0.006878403
-4.549022	serve	-0.05448587
-4.850052	colocar	-0.05606881
-4.37293	documentos	-0.0463951
-4.549022	pessoais	-0.05325138
-4.850052	portador.	0.006878403
-3.850052	meses	-0.1136301
-3.507629	férias.	-2.934352
-4.549022	comuns	-0.05603178
-4.850052	menores	-0.04844767
-4.004954	ninguém	-0.05674721
-4.850052	pelé	-0.05876382
-4.850052	classificou	-0.04813349
-4.850052	colômbia	-0.05822984
-4.850052	favorita	-0.05749839
-4.850052	título.	0.006878403
-4.850052	letalidade	-0.05375429
-4.850052	evitaria	-0.05741841
-4.850052	viagens	-0.04844767
-4.37293	unidos.	-0.1901874
-3.37293	alguém	-0.8354464
-4.549022	tiver	-0.0481272
-4.850052	vir	-0.05749839
-4.549022	templo	-0.05725225
-4.850052	curar	-0.05876382
-4.850052	se.	0.006878403
-4.850052	aplicada	-0.05728302
-4.850052	puder	-0.05804556
-4.850052	reimplantado.	0.006878403
-4.37293	quartos	-0.03924923
-4.850052	mordomo.	0.006878403
-4.850052	tema	-0.05875155
-4.549022	aparecer	-0.05348739
-4.850052	fotos.	0.006878403
-3.850052	horas.	-2.934352
-4.850052	erramos	-0.05874542
-4.247992	demais	-0.0316379
-4.549022	saque	-0.05711065
-4.850052	forçamos	-0.04844767
-4.247992	maneira	-0.05873928
-4.850052	desnecessária.	0.006878403
-4.850052	estima	-0.05728302
-4.549022	haja	-0.0583281
-4.850052	ratos	-0.05876382
-4.850052	morando	-0.05620458
-4.850052	templo.	0.006878403
-4.850052	otan	-0.05837107
-4.850052	ataques	-0.05837721
-4.37293	guerra.	-0.1901874
-4.850052	vestir	-0.04844767
-4.850052	púrpura.	0.006878403
-4.850052	ronaldo	-0.05876382
-4.850052	conquista	-0.04813349
-4.850052	persegue	-0.05606881
-4.850052	recordes	-0.04844767
-4.850052	pelé.	0.006878403
-4.549022	julgamento	-0.2811264
-4.850052	ex	-0.05875155
-4.850052	começar	-0.05608733
-4.850052	meados	-0.04844767
-3.946962	setembro.	-2.934352
-4.850052	firmava	-0.04813349
-4.37293	mão	-0.04361564
-4.850052	coxa	-0.05875769
-4.549022	direita	-0.05789807
-3.571298	ia	-1.315071
-4.850052	batente.	0.006878403
-4.850052	agências	-0.04844767
-4.151082	cursos	-0.2191647
-3.527833	língua	-0.8856832
-4.247992	japão.	-1.600091
-3.703924	ficaram	-1.123568
-4.549022	feridas	-0.04587096
-4.850052	laboratórios	-0.05876382
-4.850052	questionam	-0.05606881
-4.850052	cálculos	-0.05809471
-4.850052	negam	-0.05875769
-4.549022	aumentos	-0.05861045
-4.850052	maçã	-0.05875769
-4.549022	argentina	-0.04218416
-4.850052	preocupam	-0.05606881
-4.850052	plantadores.	0.006878403
-4.850052	cópia	-0.05875769
-4.549022	distribuída	-0.05875155
-4.549022	demonstra	-0.278717
-4.850052	correções	-0.05843246
-4.850052	pressas.	0.006878403
-4.247992	atenção	-0.04724627
-3.895809	partir	-0.3958725
-4.850052	sexta	-0.05876382
-4.850052	estarei	-0.05620458
-4.850052	caderno	-0.05874542
-2.920633	quatro.	-2.934352
-4.37293	estilo	-0.1944398
-4.37293	petista	-0.05450445
-4.850052	orelha	-0.04844767
-4.850052	eleitor	-0.0522376
-4.850052	aluguel.	0.006878403
-4.549022	compromisso	-0.04844139
-4.850052	irreversível	-0.0546469
-4.850052	célio	-0.05876382
-4.850052	benevides.	0.006878403
-4.549022	pior	-0.05218778
-4.850052	aplicação	-0.05876382
-4.850052	distorcida	-0.04844767
-4.850052	idéia.	0.006878403
-4.071901	chega	-0.4876521
-4.850052	amplo	-0.05875155
-4.37293	apoio	-0.03144197
-4.850052	intelectuais	-0.04641403
-4.549022	artistas.	-0.219601
-4.850052	juro	-0.05576628
-4.549022	capital	-0.04630674
-4.850052	giro	-0.05873315
-4.850052	mamata	-0.05644515
-4.850052	alfândega	-0.05692589
-4.850052	cara.	0.006878403
-4.549022	imaginar	-0.05220646
-4.151082	trabalhando	-0.05004021
-4.37293	algo	-0.04120166
-4.850052	igual.	0.006878403
-4.850052	padre	-0.05857977
-4.850052	coletados	-0.05815613
-4.549022	juntas	-0.05869634
-4.549022	comerciais	-0.04535251
-4.850052	estados.	0.006878403
-4.850052	registro	-0.0546469
-4.37293	hospital	-0.05467786
-4.37293	dizia	-0.1887704
-4.850052	fugido.	0.006878403
-4.004954	apesar	-0.5320351
-4.247992	disso	-0.02897232
-4.850052	ligado	-0.05749839
-4.850052	origem.	0.006878403
-4.850052	tribune	-0.05875769
-4.549022	sugere	-0.278717
-4.850052	lesivo	-0.05576628
-3.619603	pude	-1.267677
-4.850052	permitia	-0.05873928
-4.850052	ampliou	-0.0453019
-4.850052	espectro	-0.05644515
-4.850052	manipulação	-0.05876382
-4.850052	genética.	0.006878403
-4.549022	preso	-0.05619841
-4.850052	pega	-0.05874542
-4.004954	especialmente	-0.10177
-4.850052	transpira	-0.05875155
-4.37293	muito.	-0.1901874
-4.850052	econômico	-0.04641403
-4.850052	político	-0.05876382
-4.850052	deflagrado	-0.05829739
-4.850052	instigante	-0.05873928
-4.549022	reflexão.	-0.219601
-4.850052	greve.	0.006878403
-4.37293	frança.	-0.1901874
-4.37293	acha	-0.04139323
-4.004954	difícil	-0.05106538
-4.850052	ocorra.	0.006878403
-4.549022	passava	-0.04350129
-4.850052	vendendo	-0.05875769
-4.549022	comprando	-0.05844474
-4.850052	barganhando	-0.0559577
-4.850052	fregueses.	0.006878403
-4.850052	desestimulou	-0.05741841
-4.151082	compras	-0.1134945
-4.549022	teriam	-0.0481272
-4.850052	retornado	-0.05876382
-4.850052	restando	-0.05831581
-4.37293	bilhões.	-0.1901874
-4.850052	sintetizador	-0.04844767
-4.247992	voz	-0.04786311
-4.850052	beleza.	0.006878403
-2.89101	novecentos	-2.987644
-3.387654	setenta.	-2.934352
-4.37293	exceção	-0.05691357
-4.850052	lélia	-0.05876382
-4.850052	coelho	-0.05876382
-4.850052	frota.	0.006878403
-4.004954	corpo	-0.03423529
-4.850052	vermelho	-0.05875769
-4.549022	vivo	-0.05289714
-4.37293	temperatura	-0.05642665
-4.850052	sobe.	0.006878403
-4.850052	fazenda	-0.05876382
-4.850052	aluga	-0.05875155
-4.850052	tucanos.	0.006878403
-4.850052	claro	-0.0522376
-4.850052	burrice	-0.05375429
-3.594779	pedra	-1.303241
-4.850052	gávea.	0.006878403
-4.850052	engana	-0.05835879
-4.151082	pensa	-0.1239258
-4.850052	enfeitar	-0.05876382
-4.850052	presentes	-0.05876382
-4.850052	normais.	0.006878403
-4.850052	levavam	-0.05457259
-4.850052	diferente	-0.05860431
-4.850052	perseguidos	-0.0578489
-4.850052	chegavam.	0.006878403
-4.850052	paulino	-0.05876382
-4.850052	esperava	-0.0522376
-4.549022	proposta	-0.04666009
-4.071901	fosse	-0.05862885
-4.850052	marcada	-0.05576628
-4.850052	acaba	-0.05738764
-4.850052	morre	-0.0585859
-4.850052	feministas	-0.05874542
-4.850052	homossexuais	-0.05873928
-4.549022	reivindicações	-0.0577321
-4.850052	retrógradas	-0.04641403
-4.549022	tendem	-0.2746129
-4.850052	exigir	-0.05876382
-4.850052	privilégios.	0.006878403
-4.850052	sequestro	-0.04844767
-4.850052	bens	-0.05876382
-4.850052	serviria	-0.05576628
-4.247992	garantir	-0.1270609
-4.247992	pagamento.	-1.600091
-4.071901	primeiros	-0.05788578
-4.850052	noruega	-0.05692589
-4.850052	eliminada	-0.05644515
-4.850052	copa.	0.006878403
-4.850052	lembrados	-0.05875769
-4.549022	feijão	-0.05869634
-3.808659	café	-1.079969
-4.850052	derivados	-0.04844767
-4.850052	soja.	0.006878403
-4.850052	escolha	-0.05875769
-4.549022	tentou	-0.0585184
-3.318573	dar	-1.088878
-4.549022	representatividade	-0.05859204
-4.850052	escolhidos.	0.006878403
-4.37293	parecia	-0.05043431
-4.850052	assegurado	-0.05874542
-4.549022	visíveis	-0.04843511
-4.549022	sinais	-0.2749271
-4.850052	agonia	-0.05876382
-4.850052	alheia.	0.006878403
-4.850052	molestamento	-0.05875769
-4.549022	sexual	-0.05823598
-4.850052	concluir.	0.006878403
-4.850052	investidores	-0.05843246
-4.549022	venezuela.	-0.219601
-4.37293	própria	-0.05862885
-4.850052	incomoda.	0.006878403
-4.549022	franceses	-0.05833423
-3.67396	filmes	-1.226173
-4.549022	franceses.	-0.219601
-4.549022	apresentado	-0.05308362
-4.850052	meios	-0.04844767
-4.850052	comunicação	-0.05822984
-4.37293	financiamento	-0.04287186
-4.549022	considerou	-0.04529557
-4.151082	escolas	-0.112816
-4.850052	sozinhas	-0.05465929
-4.549022	conseguem	-0.05875155
-4.549022	formar	-0.03954426
-3.206599	bom	-0.8531342
-4.549022	profissional.	-0.219601
-3.946962	decisão	-0.159909
-4.37293	tomada	-0.04531455
-4.850052	fevereiro	-0.05834037
-3.645932	sessão	-1.24895
-4.850052	preocupa	-0.05876382
-4.850052	especificamente	-0.0559577
-4.850052	setor.	0.006878403
-4.850052	xavier	-0.05875769
-4.549022	hipótese	-0.04813978
-4.850052	caixão	-0.0582237
-4.850052	violado.	0.006878403
-4.247992	reúne	-0.05580951
-4.549022	depoimentos	-0.2749271
-4.850052	montaram	-0.05762141
-4.549022	negócio.	-0.219601
-4.850052	bola	-0.0586534
-3.571298	sai	-1.312296
-4.549022	tenta	-0.05821756
-4.850052	lindas	-0.05876382
-4.850052	perfumadas	-0.04641403
-4.850052	adoráveis	-0.05876382
-4.850052	mesmo.	0.006878403
-4.850052	gilda	-0.05875769
-4.549022	portugal	-0.05838335
-4.850052	gouvêa	-0.05857362
-4.850052	delegada	-0.0546469
-4.247992	educação	-0.1422881
-4.850052	recomendáveis	-0.05606881
-4.247992	temas	-0.04174422
-4.850052	acidentes	-0.04844767
-4.850052	alcoolismo.	0.006878403
-4.549022	integração	-0.04331065
-4.549022	crucial	-0.05437436
-4.850052	externo.	0.006878403
-4.850052	taborda	-0.05875155
-4.37293	pegou	-0.04909417
-4.850052	assinaturas	-0.05608733
-2.872328	cinco.	-2.934352
-4.850052	conversões	-0.05829739
-3.117658	seiscentos	-2.987644
-4.850052	interesse	-0.05608733
-4.37293	empréstimos	-0.05643282
-4.850052	rurais.	0.006878403
-3.177954	muita	-1.123047
-4.850052	aprender	-0.05809471
-4.850052	aquisitivo.	0.006878403
-4.549022	soma	-0.05824826
-4.850052	aptidões.	0.006878403
-4.850052	circula	-0.05847543
-4.850052	bairros	-0.04844767
-4.850052	capivari	-0.04641403
-4.850052	abernéssia.	0.006878403
-4.850052	aplicar.	0.006878403
-4.37293	criado	-0.03660428
-4.850052	luxemburgo	-0.05873315
-4.071901	novembro.	-2.934352
-3.387654	longe	-0.9106599
-4.850052	estúdios	-0.05843246
-4.549022	controle	-0.0554079
-4.850052	produtores.	0.006878403
-4.850052	cruz	-0.05809471
-4.850052	curta	-0.05576628
-4.850052	isto.	0.006878403
-4.850052	estágio	-0.05375429
-3.946962	sistema	-0.04729667
-4.850052	inspirou	-0.05875155
-4.37293	principalmente	-0.05619224
-4.850052	utilizado	-0.05608733
-4.37293	podia	-0.05743687
-4.37293	explicações	-0.05874542
-4.549022	práticas	-0.2822457
-4.549022	preferência	-0.05400862
-4.850052	faroestes.	0.006878403
-4.549022	melhorar	-0.03432615
-4.004954	ensino	-0.09784277
-4.247992	escola	-0.04291003
-4.850052	discreto	-0.05840177
-4.850052	helena	-0.05876382
-4.850052	junior.	0.006878403
-4.850052	ecologia	-0.04641403
-4.850052	gerações	-0.05876382
-4.850052	futuras.	0.006878403
-4.850052	dinamizar	-0.05876382
-4.850052	tais	-0.05874542
-4.071901	significa	-0.05841404
-4.850052	cadeia	-0.05644515
-3.571298	carne.	-2.934352
-4.850052	conte	-0.05834651
-4.247992	história.	-1.600091
-4.549022	moradores	-0.0542814
-4.850052	gostam	-0.0569998
-4.850052	conversa-fiada.	0.006878403
-4.850052	aprovaram	-0.05870861
-4.549022	mudar	-0.2746129
-4.850052	mentalidade	-0.04641403
-4.850052	conscientizar	-0.04813349
-4.549022	saem	-0.05556859
-3.507629	frente	-0.9133037
-4.850052	candidatos	-0.05876382
-4.850052	cujos	-0.05875769
-4.549022	currículos	-0.05701828
-4.850052	chegarem	-0.05872088
-3.946962	primeiro.	-2.934352
-4.850052	pesquisou	-0.05875155
-4.37293	naquele	-0.05854908
-4.850052	encontrou	-0.05872702
-4.850052	significativos	-0.05842633
-4.850052	assunto.	0.006878403
-4.850052	imagine	-0.05738764
-4.850052	descobrirem	-0.04813349
-3.318573	guarda	-1.260079
-4.37293	reduzem	-0.0314681
-4.850052	preparação	-0.05773824
-4.850052	anúncios.	0.006878403
-4.549022	passando	-0.05737534
-4.850052	largo	-0.0582544
-4.850052	ideologias	-0.05834037
-4.549022	antes.	-0.219601
-4.549022	conseguiu	-0.05873315
-4.850052	legalização	-0.0546469
-4.549022	polêmica	-0.05579098
-4.549022	época.	-0.219601
-4.247992	fluxo	-1.655417
-4.850052	usinas.	0.006878403
-4.549022	canhões	-0.0574061
-4.247992	fora.	-1.600091
-4.37293	tumor	-0.05855521
-4.850052	crescer	-0.04641403
-4.850052	empurrar	-0.05606881
-4.850052	órgãos	-0.0546469
-4.850052	mediastino.	0.006878403
-4.247992	precisamos	-0.03931338
-4.549022	parlamentar	-0.05561184
-4.549022	reformas.	-0.219601
-4.850052	rematou	-0.05876382
-4.850052	minuciosamente	-0.04813349
-4.850052	documental	-0.04641403
-4.850052	atualizou	-0.0453019
-4.850052	diálogo	-0.0559577
-4.850052	historiografia.	0.006878403
-3.645932	novela	-1.255397
-4.850052	enfoca	-0.05765831
-4.071901	período	-0.8174292
-4.850052	mortal	-0.04844767
-4.850052	pandora.	0.006878403
-4.247992	companhia	-0.05870861
-4.850052	alemã	-0.05871475
-4.549022	oferecer	-0.04812092
-4.549022	ampla	-0.05871475
-4.37293	rede	-0.05574774
-4.850052	aeroviária.	0.006878403
-4.549022	render	-0.05658696
-4.850052	descobre	-0.05872088
-4.850052	especialidade	-0.05876382
-4.850052	porto-riquenha.	0.006878403
-2.946962	dois.	-2.934352
-4.37293	quarenta.	-0.1901874
-2.471654	zero	-1.461263
-3.258987	meia.	-2.934352
-2.986729	sete.	-2.934352
-4.071901	tamanho.	-2.934352
-3.895809	voltar.	-2.934352
-4.071901	link.	-2.934352
-3.736109	parar.	-2.934352
-3.387654	terça-feira.	-2.934352
-3.895809	recortar.	-2.934352
-4.071901	wav.	-2.934352
-3.895809	visualizar.	-2.934352
-4.151082	dividir.	-2.934352
-3.808659	débito	-2.999926
-3.770871	automático.	-2.934352
-3.946962	borda.	-2.934352
-4.071901	régua.	-2.934352
-4.247992	indicador.	-1.600091
-3.895809	acender.	-2.934352
-3.946962	iof.	-2.934352
-3.946962	cdb.	-2.934352
-4.071901	fechar.	-2.934352
-4.071901	comentário.	-2.934352
-4.071901	símbolo.	-2.934352
-3.571298	cheirar	-2.986532
-3.159856	verde	-1.000456
-3.270268	azul.	-2.934352
-3.402894	fomos	-2.996839
-3.571298	doces	-2.999626
-3.258987	cair	-1.62462
-3.571298	alto.	-2.934352
-3.571298	rainhas	-2.987644
-3.571298	deleites	-2.999883
-3.571298	catam	-2.999883
-3.571298	florestas.	-2.934352
-3.619603	róseas	-2.999896
-3.619603	alusões	-2.999896
-3.619603	descoradas	-2.999896
-3.619603	gritavam	-2.999896
-3.619603	docemente.	-2.934352
-3.594779	leões	-2.999792
-3.318573	azuis	-2.999786
-3.571298	caem	-1.327381
-3.37293	porões	-2.985437
-3.594779	java.	-2.934352
-3.0792	sela	-1.520897
-3.770871	danificada	-2.998156
-3.469841	guardada	-2.999515
-3.387654	cela	-2.995373
-3.770871	castelo.	-2.934352
-3.418688	fará	-2.989364
-3.030508	cessão	-2.980557
-3.142482	sessão.	-2.934352
-3.67396	interrompida	-2.999908
-3.67396	ocorrerá	-2.999779
-3.67396	empréstimo.	-2.934352
-3.770871	discutiremos	-2.998648
-3.703924	estratégias	-0.8916264
-3.469841	empréstimo	-2.999609
-3.770871	partilha	-2.999601
-3.770871	resolvidas.	-2.934352
-4.549022	cientistas	-0.05462214
-4.850052	instituto	-0.05876382
-4.850052	ovelha	-0.05861658
-4.151082	forte	-0.1286345
-4.549022	psdb	-0.05608116
-4.850052	víamos	-0.05875769
-4.549022	realidade	-0.0546531
-4.850052	ficcional.	0.006878403
-4.850052	mercê	-0.0582544
-4.850052	intempéries	-0.05876382
-4.850052	climáticas.	0.006878403
-4.549022	palácio	-0.04623729
-4.004954	estavam	-0.1093527
-4.549022	novamente	-0.05605647
-4.247992	fãs.	-1.600091
-4.151082	sucesso	-0.1532301
-4.549022	iniciativa	-0.05875155
-4.850052	prossegue	-0.05608733
-4.850052	determinados	-0.05875769
-4.549022	fins	-0.2749271
-4.850052	industrial	-0.05875769
-4.549022	inicia	-0.04067121
-4.850052	estagnação	-0.0559577
-4.071901	prazo	-0.1097272
-4.850052	assumiu	-0.05876382
-4.850052	publicamente	-0.0453019
-4.850052	venezuelano.	0.006878403
-4.071901	consumidor	-0.04553594
-4.850052	estranhar	-0.05728302
-4.247992	produto	-0.05873315
-4.37293	estiver	-0.05173294
-4.37293	mercado.	-0.1901874
-4.37293	previsão	-0.04383154
-4.37293	que.	-0.1901874
-4.549022	thompson	-0.05727071
-4.549022	retrata	-0.03432615
-4.850052	considera	-0.05457259
-4.247992	tradicional	-0.04528292
-4.850052	rebelde.	0.006878403
-4.247992	realmente	-0.05873928
-4.850052	empenhado	-0.05875769
-4.549022	nisso.	-0.219601
-4.850052	protagonista	-0.05375429
-4.850052	poeta	-0.05876382
-4.850052	solitário.	0.006878403
-4.850052	nuvens	-0.04844767
-4.850052	gelo	-0.05876382
-4.850052	carbônico	-0.05876382
-4.850052	aqueceriam	-0.0453019
-4.549022	planeta.	-0.219601
-4.37293	emenda	-0.253511
-4.247992	previdência	-0.04875535
-4.850052	enviada	-0.05749839
-4.247992	congresso	-0.05568597
-3.507629	abril	-1.380546
-4.071901	economia	-0.04780021
-4.850052	gasta	-0.05457259
-4.850052	quantia	-0.0559577
-4.247992	material	-0.05835265
-4.850052	impresso.	0.006878403
-4.850052	fãs	-0.05644515
-4.850052	ligaram	-0.05576628
-4.37293	tal	-0.05868407
-4.850052	complexo.	0.006878403
-4.850052	concentrados	-0.05620458
-4.247992	centro	-0.2725463
-3.28185	pedro	-1.527461
-4.850052	atacama.	0.006878403
-4.850052	abuse	-0.04844767
-4.850052	gráficos	-0.05822984
-4.549022	diferentes	-0.05869021
-4.850052	letra.	0.006878403
-4.850052	inspeções	-0.05876382
-4.850052	mecanizadas	-0.04641403
-4.850052	informatizadas	-0.05868407
-4.850052	apropriadas.	0.006878403
-3.177954	quinhentos	-2.987644
-2.969238	oito.	-2.934352
-4.004954	desligar.	-2.934352
-4.004954	tabulação.	-2.934352
-3.67396	alinhar	-2.999153
-3.770871	direita.	-2.934352
-4.151082	cic.	-2.934352
-4.151082	internet.	-2.934352
-3.452112	janela.	-2.934352
-4.151082	repetir.	-2.934352
-3.946962	negrito.	-2.934352
-4.004954	colar.	-2.934352
-4.004954	imagem.	-2.934352
-3.946962	histórico.	-2.934352
-3.895809	favoritos.	-2.934352
-3.35869	tudo.	-2.934352
-3.946962	quinta.	-2.934352
-3.808659	agência.	-2.934352
-3.895809	correio.	-2.934352
-3.946962	.	-2.934352
-3.258987	cantar	-2.993913
-3.549022	pedras	-2.999877
-3.549022	desfaz	-2.986532
-3.527833	positivo	-1.358207
-3.549022	agoras.	-2.934352
-3.645932	mar	-2.999902
-3.645932	inventa	-2.999902
-3.645932	macacos.	-2.934352
-3.549022	cantou	-1.344661
-3.571298	rugoso	-2.999883
-3.571298	anel.	-2.934352
-3.645932	amargos	-2.999626
-3.571298	café.	-2.934352
-2.89101	vendeu	-1.960285
-2.789354	pimenta	-2.031185
-3.094177	cheiro.	-2.934352
-3.895809	penas.	-2.934352
-3.67396	vendi	-2.995803
-3.895809	severa	-2.999945
-3.895809	pena.	-2.934352
-4.850052	termos	-0.05876382
-4.850052	gerais	-0.05875769
-4.549022	tivemos	-0.04414885
-4.549022	atuação	-0.04570032
-4.850052	chile.	0.006878403
-4.850052	envolve-se	-0.0559577
-4.850052	bela	-0.05876382
-4.850052	negra.	0.006878403
-4.850052	adequação	-0.05834037
-4.549022	procedimentos	-0.05619841
-4.004954	embora	-0.03834365
-4.549022	estejam	-0.0585859
-4.850052	estarem	-0.05875769
-4.549022	deve-se	-0.05874542
-4.37293	fixar	-0.04809577
-4.850052	taxas.	0.006878403
-4.850052	banheiras	-0.04844767
-4.850052	hidromassagem	-0.04641403
-3.37293	telefone.	-2.934352
-4.850052	viagem	-0.0546469
-4.850052	japão	-0.05845088
-4.549022	durou	-0.05592066
-4.850052	entendia	-0.0453019
-4.850052	acontecendo	-0.05875769
-4.549022	acharam	-0.05191368
-4.850052	pegadinha.	0.006878403
-4.850052	estilos	-0.05876382
-4.850052	arquitetônicos	-0.05876382
-4.850052	destoam	-0.0453019
-4.37293	ambiente	-0.0557601
-4.850052	encontram.	0.006878403
-4.850052	prato	-0.0569998
-4.850052	apreciado	-0.05608733
-4.549022	antão	-0.05374808
-4.850052	camarão	-0.05608733
-4.850052	vinha-dalho.	0.006878403
-4.850052	instalada	-0.04844767
-4.549022	china	-0.05749224
-4.850052	continental.	0.006878403
-4.850052	analista	-0.04844767
-4.850052	bozano.	0.006878403
-4.549022	determinado	-0.0481272
-4.850052	pessoalmente	-0.05644515
-4.37293	rápida	-0.0463951
-4.549022	possível.	-0.219601
-4.549022	ingressos	-0.05572304
-4.850052	sócios	-0.05861658
-3.435078	pão	-1.448416
-4.850052	queijo.	0.006878403
-4.549022	série	-0.2749271
-4.850052	dedica	-0.05867794
-4.850052	estupram	-0.04813349
-4.850052	garota	-0.05822984
-4.850052	cortam	-0.04813349
-4.850052	mãos.	0.006878403
-4.850052	ocupação	-0.05875769
-4.850052	mananciais	-0.05876382
-4.850052	afetou	-0.0569998
-4.850052	ecossistema	-0.05644515
-4.151082	região.	-2.934352
-4.850052	conhecendo	-0.05318926
-4.850052	adversário.	0.006878403
-4.247992	precisa	-0.1421166
-4.850052	látex.	0.006878403
-4.850052	otimismo.	0.006878403
-3.216583	dez.	-2.934352
-3.895809	graves.	-2.934352
-4.004954	agudos.	-2.934352
-3.850052	exibir.	-2.934352
-3.895809	erguer.	-2.934352
-3.850052	sublinhado.	-2.934352
-4.071901	hyperlink.	-2.934352
-3.216583	quinta-feira.	-2.934352
-3.594779	aumentar.	-2.934352
-3.946962	volume.	-2.934352
-3.895809	conteúdo.	-2.934352
-3.946962	quarta.	-2.934352
-3.946962	limpar.	-2.934352
-3.946962	ajuda.	-2.934352
-4.004954	substituir.	-2.934352
-3.895809	opções.	-2.934352
-3.549022	ganhamos	-1.342155
-3.507629	continente	-0.9141269
-3.549022	vindas	-1.339697
-3.571298	outras.	-2.934352
-3.645932	sorriu	-1.254838
-3.645932	macas	-2.989678
-3.619603	vento.	-2.934352
-2.781866	compro	-2.995803
-2.609503	manga	-2.972244
-3.469841	paulistana.	-2.934352
-3.527833	madura.	-2.934352
-3.527833	catarinense.	-2.934352
-3.549022	verde.	-2.934352
-2.656927	manga.	-2.934352
-4.850052	pernas.	0.006878403
-4.850052	facilidade	-0.05608733
-4.37293	profissão	-0.0256089
-4.37293	isso.	-0.1901874
-4.850052	morreram	-0.05826669
-4.850052	homens.	0.006878403
-4.850052	prever	-0.04813349
-4.850052	necessidade.	0.006878403
-4.37293	madrugada	-0.04299909
-4.549022	pilotos	-0.05220646
-4.850052	treinos	-0.05576628
-4.850052	penúltima	-0.05876382
-4.850052	etapa.	0.006878403
-4.850052	veemência	-0.0559577
-4.850052	reivindicamos	-0.05876382
-4.850052	direitos.	0.006878403
-4.549022	disputar	-0.04390771
-4.850052	finais	-0.05375429
-4.850052	atenções	-0.05875155
-4.549022	voltadas	-0.2822457
-4.549022	correspondia	-0.04726516
-3.770871	porcento.	-2.934352
-4.850052	aquecia	-0.05620458
-4.850052	fogueira	-0.05876382
-4.850052	improvisada	-0.0559577
-4.850052	caixotes	-0.05876382
-4.850052	velhos	-0.04641403
-4.850052	papelões.	0.006878403
-4.850052	contribuintes	-0.05876382
-4.850052	inclusos	-0.05620458
-4.850052	lote	-0.05644515
-4.850052	restituição	-0.0546469
-4.549022	renda.	-0.219601
-4.850052	perguntei	-0.05728302
-4.850052	trabalhava	-0.05865953
-3.594779	fora	-0.6715366
-4.850052	confiantes	-0.05608733
-4.850052	indissolubilidade	-0.05847543
-4.850052	liberdades	-0.05875769
-4.850052	-de	-0.05876382
-4.850052	associação.	0.006878403
-3.488324	querem	-1.402938
-3.619603	faça	-0.970875
-4.850052	valer	-0.04813349
-4.850052	legitimidade.	0.006878403
-4.151082	trabalhadores	-0.118783
-4.549022	ganham	-0.05700596
-4.850052	salários.	0.006878403
-4.850052	tomam	-0.04813349
-4.850052	setembro	-0.05861658
-4.850052	intensos	-0.05876382
-4.850052	bombardeios.	0.006878403
-4.549022	emulador	-0.05873315
-4.549022	stella	-0.05538935
-4.850052	compactado.	0.006878403
-4.850052	anunciada	-0.04813349
-4.850052	categoria	-0.05859817
-4.850052	prevê	-0.04813349
-4.850052	selinho	-0.04844767
-4.850052	afixação	-0.05876382
-4.850052	obrigatória	-0.05620458
-4.850052	pára-brisa	-0.05773824
-4.549022	carros.	-0.219601
-4.549022	reconhece	-0.04769954
-4.850052	cambial.	0.006878403
-4.004954	salvar	-2.999957
-4.004954	como.	-2.934352
-3.850052	www.	-2.934352
